{"layers":[{"out_depth":1,"out_sx":24,"out_sy":24,"layer_type":"input"},{"sx":5,"sy":5,"stride":1,"in_depth":1,"out_depth":8,"out_sx":24,"out_sy":24,"layer_type":"conv","l1_decay_mul":0,"l2_decay_mul":1,"pad":2,"filters":[{"sx":5,"sy":5,"depth":1,"w":{"0":0.000008793160448306815,"1":0.0000035753062759985387,"2":0.000010571567202712046,"3":-0.000015895948068870212,"4":0.000023853052778693085,"5":-0.000008201802289831465,"6":0.000010418515926687381,"7":-0.00002683524654827935,"8":0.000014091387147294335,"9":-0.000016151914515921865,"10":0.00003121944800158935,"11":-0.000023449098863805826,"12":0.000003827158321994471,"13":0.000006473498612609393,"14":0.00002119423522541766,"15":-0.0000048820432287073,"16":0.000009317215615325527,"17":0.0000016931800048303998,"18":-0.000014028460040411678,"19":-0.0000210836563255458,"20":0.000015196349520874296,"21":-0.000028771168736166447,"22":0.000028165117004536247,"23":-0.000004439055286930575,"24":0.000014597458314660682}},{"sx":5,"sy":5,"depth":1,"w":{"0":0.09471886917557967,"1":0.12833540069623572,"2":-0.4337362381137666,"3":-0.1487993225217183,"4":-0.20987087165120785,"5":0.008061466726094538,"6":-0.13402695594080044,"7":0.04055764272853654,"8":0.37961207513555206,"9":0.34823545141436024,"10":-0.037753396284128646,"11":0.18760712872527838,"12":0.2962038381102845,"13":0.05593231943839056,"14":0.16239779138300342,"15":0.03184410954297341,"16":0.0678819293253441,"17":0.2152004987556796,"18":-0.23166346005386718,"19":-0.2968821147334511,"20":0.06557089393533667,"21":-0.31455696884369977,"22":-0.36371115304541485,"23":-0.15531151912653782,"24":-0.15801040020511345}},{"sx":5,"sy":5,"depth":1,"w":{"0":-0.04535146786781699,"1":-0.06986827106731214,"2":0.005539649731517439,"3":0.3955008380877598,"4":0.1997773288462011,"5":-0.5141601110981215,"6":-0.37446255297696407,"7":-0.026430437202882472,"8":1.0286655941213778,"9":0.11317418107470778,"10":0.0429955849305924,"11":-0.09329756674985651,"12":0.6904928602014893,"13":0.7743795299031635,"14":-0.46679904381555354,"15":-0.35445504913946707,"16":-0.1737910280050819,"17":0.10083939712594954,"18":0.2392897991303868,"19":-0.20783520401795935,"20":0.00670039338247617,"21":0.28124270713768257,"22":0.28980604265081156,"23":0.26107099978374776,"24":0.46424827808078956}},{"sx":5,"sy":5,"depth":1,"w":{"0":0.402545914274308,"1":0.3109345092848626,"2":-0.14824143837934933,"3":-0.1480400079237925,"4":0.5198223062197098,"5":0.3387325892575081,"6":-0.1830711177116873,"7":-0.2405073668578684,"8":-0.0818434879604294,"9":0.04893137093758981,"10":0.48272572393573626,"11":-0.2039792651898852,"12":-0.2561948519489297,"13":0.0787363160856918,"14":0.0032508351803365847,"15":0.3933922830757324,"16":-0.1601103888283673,"17":-0.23338575039020454,"18":0.11308709403710403,"19":0.2607462606052802,"20":0.12568222595829973,"21":0.5392033867879154,"22":0.3462744192706047,"23":0.17241344963818642,"24":-0.08829846707369818}},{"sx":5,"sy":5,"depth":1,"w":{"0":0.000011991895101171605,"1":0.000054146179472184055,"2":0.00003929428129051016,"3":0.0001709457864623147,"4":0.0002090235244072588,"5":0.00002104662448481454,"6":-0.00012743646424830622,"7":0.0000032384509935933207,"8":-0.0001451851746396122,"9":0.00007019497605007178,"10":-0.000004900690606414486,"11":0.000051631060959552314,"12":-0.000025481954231305018,"13":0.00007631966065379793,"14":-0.00004862469648811191,"15":-0.00007313688999126614,"16":-0.00017482472730566705,"17":-0.00003823693846593724,"18":-0.000038080365711503725,"19":-0.00023633486270632824,"20":0.00040488093780250914,"21":0.00005997724502265473,"22":-0.00018719810405988174,"23":0.000002499382700471134,"24":0.0002444328434994486}},{"sx":5,"sy":5,"depth":1,"w":{"0":-0.21417205961811217,"1":0.2960849069019289,"2":0.1905866333688711,"3":0.2806952418324335,"4":0.5636864230121427,"5":-0.04150445073005945,"6":0.35973207663522966,"7":0.22329379974778774,"8":0.04717856333114351,"9":0.031230129469810724,"10":0.09545494104553061,"11":-0.012577694869944426,"12":-0.3554113525267979,"13":-0.4809915017340667,"14":-0.1560367150511937,"15":-0.166387138065963,"16":-0.02973922815796065,"17":-0.2224144217428287,"18":-0.30243177490452056,"19":0.23071692411247083,"20":0.005385252269035158,"21":-0.027957737672766228,"22":0.1817601944498965,"23":0.43298830857456777,"24":0.663635097098689}},{"sx":5,"sy":5,"depth":1,"w":{"0":0.05007504583556377,"1":-0.13660048791349327,"2":0.05911228864887423,"3":-0.04108582578081802,"4":0.018556348642475875,"5":-0.23575365004547094,"6":-0.07899876220070377,"7":-0.09389049106079612,"8":-0.257015819466593,"9":0.06131147963774671,"10":-0.10548714990770512,"11":-0.09379595051399757,"12":-0.13356194798562052,"13":0.07732243803046551,"14":-0.5110499602878795,"15":0.4456967516381341,"16":-0.08699970259255425,"17":-0.35520575355247147,"18":-0.06532158573761254,"19":0.19485545090575918,"20":0.14603259499118434,"21":0.10517202246025548,"22":0.4918267792915608,"23":0.5869765326216712,"24":0.2825527884726141}},{"sx":5,"sy":5,"depth":1,"w":{"0":0.0301649409237736,"1":-0.0252653056812508,"2":0.40357676316900565,"3":0.21831909053565182,"4":-0.6649632482433113,"5":0.07711507464384028,"6":-0.1685096438978619,"7":0.24523652326962458,"8":0.6536871736964978,"9":0.23054679912438242,"10":0.007553368383784786,"11":-0.4089215342377443,"12":0.2559279533291563,"13":0.2123269549332255,"14":0.3582726154225227,"15":-0.022470716701692383,"16":-0.24403632009680876,"17":-0.3293617706825165,"18":-0.1640682331134044,"19":0.30699944416639996,"20":0.25930648408751766,"21":-0.2321747309126776,"22":-0.2560145931869852,"23":-0.3646728628215523,"24":0.2185037753752636}}],"biases":{"sx":1,"sy":1,"depth":8,"w":{"0":-0.320426660506329,"1":-0.26836640641025944,"2":-0.028656499439577567,"3":-0.3269728441910491,"4":-0.437571674329018,"5":-0.4115830977913593,"6":-0.15441240175107346,"7":-0.2637834786493107}}},{"out_depth":8,"out_sx":24,"out_sy":24,"layer_type":"relu"},{"sx":2,"sy":2,"stride":2,"in_depth":8,"out_depth":8,"out_sx":12,"out_sy":12,"layer_type":"pool","pad":0},{"sx":5,"sy":5,"stride":1,"in_depth":8,"out_depth":16,"out_sx":12,"out_sy":12,"layer_type":"conv","l1_decay_mul":0,"l2_decay_mul":1,"pad":2,"filters":[{"sx":5,"sy":5,"depth":8,"w":{"0":0.000010476469096022925,"1":-0.1509442271543335,"2":0.4734154600408725,"3":0.04334530391984879,"4":0.0000114874026789374,"5":-0.19795157212391393,"6":0.11501095430559585,"7":-0.2838353766212233,"8":0.000008285370706803619,"9":-0.022228119038636782,"10":0.26982389678954555,"11":0.10465518256525713,"12":0.00004329380880027244,"13":-0.11554334860842552,"14":0.05382018412020579,"15":-0.032400376100517096,"16":0.000014711431261137672,"17":0.03824687693423943,"18":0.13153546818319015,"19":0.05744092665916621,"20":0.00006920913333461438,"21":0.03424261098957002,"22":-0.08097627065173026,"23":0.16287922825700205,"24":0.00002029786348743043,"25":0.010651625696868328,"26":-0.07943943505795645,"27":0.28234776997269906,"28":0.000025889952440092512,"29":-0.0045234520470315105,"30":-0.005929873107010445,"31":0.18706648413126686,"32":0.00003449836643308388,"33":-0.02164296381065575,"34":-0.14808929312652877,"35":0.09636632914100848,"36":0.00003711192899308001,"37":-0.031600455696869964,"38":-0.11630658552447118,"39":0.17773776364657823,"40":0.000013317110651153206,"41":0.05743302444588499,"42":0.6745292294172202,"43":-0.007217458440042496,"44":-0.000007998644528782036,"45":-0.18561351398544967,"46":-0.2714857227051683,"47":-0.24118665156902253,"48":0.00001608341572008268,"49":-0.055450217552484325,"50":0.04528868861427497,"51":0.1491752647288053,"52":0.000054873548570776526,"53":-0.09973112989165452,"54":-0.022567060659945855,"55":0.022861691203655485,"56":0.000025885587253764714,"57":0.05737177050236342,"58":0.021706624761019942,"59":0.13226679198826047,"60":0.0000680794745400784,"61":0.03106894175613657,"62":0.012943803704603742,"63":0.38571170294715257,"64":0.000030854789177671223,"65":0.1037726707590706,"66":-0.2559206835313288,"67":0.15329027834696216,"68":0.00003450059418515202,"69":0.034765458399681294,"70":-0.005606978129383512,"71":0.21583898180244224,"72":0.000011809246859267457,"73":0.011295986706722484,"74":-0.17045707600124543,"75":0.10503534505282121,"76":0.000017927695130978755,"77":-0.008196721366828256,"78":0.0007233991171849064,"79":0.08149027808351701,"80":0.000011773834748431203,"81":-0.1352374057175097,"82":0.4764759389913422,"83":-0.011727756647962719,"84":-0.000032119880537927676,"85":0.05271391753408609,"86":-0.31289627213913573,"87":-0.016984840701709164,"88":0.00001839970855796074,"89":-0.02872392316217144,"90":-0.029340910287214216,"91":0.30263368745890196,"92":0.000012724098187280018,"93":-0.046208055625750914,"94":-0.11867704332819874,"95":0.01386053280763443,"96":0.000023008027153352535,"97":0.15663136815526119,"98":-0.1240211252569328,"99":0.21478989675965215,"100":0.000011784639647092742,"101":0.023345691992421404,"102":0.028421261002558415,"103":0.23929718987627463,"104":0.000016003599623517918,"105":0.08473938255034047,"106":-0.21103318353298478,"107":0.011865724461374742,"108":0.00004215669077611426,"109":0.018777326498159858,"110":-0.04335957986800398,"111":0.2168935177486,"112":0.00002364470059106323,"113":0.05411239883326805,"114":-0.19627099480018406,"115":-0.02676892778213646,"116":-0.0000026189382866811854,"117":-0.034822571399062134,"118":-0.027009609817072643,"119":-0.07006330021443463,"120":0.000011522228346331473,"121":-0.12969418179004852,"122":0.3814341951202659,"123":-0.08939174200506585,"124":-0.000020319006453669697,"125":-0.007924481750290166,"126":-0.24453864139954518,"127":0.29669106426066194,"128":0.00001772099231024185,"129":0.07249580865859093,"130":-0.10283390882362886,"131":0.1716019530459051,"132":-0.000018923284037410516,"133":-0.09678662972598555,"134":-0.1339872334973621,"135":0.18650921772798237,"136":0.00002540365116025642,"137":0.13041745067978366,"138":-0.32711788485679444,"139":0.15546940725150854,"140":0.000042770280322571334,"141":-0.08243353707746023,"142":-0.09631705335654787,"143":-0.04410548270714748,"144":0.00001709856281545734,"145":0.08566264437235104,"146":-0.2572449520187584,"147":0.0013826419390031233,"148":0.000010885893025636122,"149":-0.06151613571104999,"150":-0.09635516544039675,"151":0.06236737984447503,"152":0.0000259285560708019,"153":-0.07597546911604085,"154":-0.30112148299135755,"155":-0.01602330979883208,"156":-0.000012362824692697094,"157":-0.06270290567521482,"158":-0.19139106648700935,"159":0.094418541846376,"160":0.000016051381959260745,"161":-0.1308803634278009,"162":0.28595143207359147,"163":-0.14341189814221486,"164":0.000008082796896834255,"165":-0.06605035600437473,"166":-0.33623229144092304,"167":0.1174225100110752,"168":0.00002440497244963722,"169":-0.007492977485746127,"170":-0.08592843869659926,"171":0.03118588226220622,"172":0.000046844592288943586,"173":-0.02262721653736748,"174":-0.18931449885903612,"175":0.1273692223593837,"176":0.000021345666676573674,"177":0.02323818884458627,"178":-0.2888406217781817,"179":0.12404937195626618,"180":0.00007579312124140298,"181":-0.09477442894502638,"182":-0.12397784903245396,"183":-0.12006025577820352,"184":0.000020689454279790785,"185":-0.005470932365278872,"186":-0.17863166337408862,"187":0.03376429124256252,"188":0.000060370156185894146,"189":-0.02456241615931241,"190":-0.09006233462801766,"191":-0.01789824211523346,"192":0.000009700608537609301,"193":-0.02542801889795819,"194":-0.29362032728593657,"195":-0.006725103161370992,"196":0.000041513240608643754,"197":-0.0398796171445657,"198":-0.06283014179575155,"199":-0.03350145406348886}},{"sx":5,"sy":5,"depth":8,"w":{"0":0.000010517350704799288,"1":0.06253197185476815,"2":0.06742908692859372,"3":0.010338251028398216,"4":-0.000021500838927122054,"5":-0.019546282975892143,"6":0.00561311818887156,"7":-0.006382740972359207,"8":0.00001901845235481749,"9":0.15260372788115562,"10":-0.03282225225478674,"11":0.011882751013846612,"12":-0.000007865042015171539,"13":0.034994932437301174,"14":-0.04144496274138831,"15":0.05989841138775245,"16":0.000019488366455309044,"17":0.06504064392221995,"18":-0.03555585882228219,"19":0.008758496148751361,"20":0.000009277577656257854,"21":0.19713742765370776,"22":-0.010754119448093907,"23":0.2727191373221477,"24":0.000003987191784313821,"25":-0.012402360181559654,"26":0.3340498461512238,"27":0.02990690370747522,"28":-0.000005948114369788592,"29":0.20902556640804593,"30":-0.01486355823346751,"31":0.33458474118734444,"32":0.000024300968556973554,"33":-0.056722161852432014,"34":0.160633654104485,"35":0.11195404769764546,"36":-0.000009743661242589937,"37":-0.005770032813415675,"38":0.026202046022080976,"39":-0.10663852689405173,"40":0.000015234584561775067,"41":0.0869473433625132,"42":-0.0810878143227433,"43":-0.012447835823217603,"44":0.000024984110036850152,"45":-0.0087448202514601,"46":-0.07022693653942756,"47":-0.04859872200933758,"48":0.000014636861940734954,"49":0.012565667713745914,"50":-0.1428763930318945,"51":-0.02335439450103415,"52":0.00003836266951403954,"53":-0.01864113533084768,"54":0.035438834560558324,"55":-0.06665414526541391,"56":0.000020454084637666997,"57":0.07732512542638859,"58":-0.18933013898469797,"59":-0.03165960244519932,"60":0.00003701507002416524,"61":0.10990674622727545,"62":-0.10238275025460915,"63":0.010205626343337272,"64":7.253706261651294e-7,"65":0.10977646280490722,"66":0.2614555179709162,"67":-0.023688712442784303,"68":0.000011731793157623452,"69":0.0815946541564132,"70":-0.2075067883811982,"71":0.3457364047743769,"72":6.072611476633417e-7,"73":-0.04635470049364982,"74":0.24457557443324127,"75":0.0257231492148557,"76":-0.000002624073119342899,"77":0.07586660706133531,"78":0.036696782366607436,"79":0.36431920835839066,"80":0.000010267659562415189,"81":0.014432808596766829,"82":-0.24736870927754726,"83":-0.06792544254737627,"84":0.00001569926856007927,"85":0.009542654761528586,"86":-0.06458259891341996,"87":-0.03313000072656019,"88":0.000007631504098990163,"89":-0.037249943004267684,"90":-0.024649163471818062,"91":-0.037025823663084226,"92":0.000023580894640954744,"93":-0.04753026480330222,"94":-0.04318953323593812,"95":-0.13963884473586202,"96":0.000013663925931112858,"97":-0.024537549902505024,"98":-0.01448824963042879,"99":-0.04122104496664873,"100":3.416396335432673e-7,"101":0.03343084099334494,"102":-0.11519016485058908,"103":-0.13312200413444095,"104":0.000017179574967204157,"105":0.06886447224775567,"106":-0.2115501525448546,"107":0.03423512247115909,"108":0.00004486663528877623,"109":0.12895187802852243,"110":-0.1076311925044427,"111":0.282324996223252,"112":0.000019376225495569956,"113":0.09368880570113247,"114":0.0733984272546017,"115":-0.02103873268151016,"116":-0.00002363032548385242,"117":0.08729893952003046,"118":-0.2650898675806677,"119":0.6914821562401665,"120":0.00002115656884482199,"121":-0.008950295228455618,"122":-0.13942211614655858,"123":-0.017907367623275154,"124":0.000014059924858688152,"125":-0.0009578833368992681,"126":-0.09041149839335928,"127":0.015682588925738424,"128":0.000014217500009458123,"129":-0.05909601978745033,"130":0.08617894025490494,"131":-0.004673995693635065,"132":0.00007848296738267426,"133":-0.022647394194082866,"134":-0.11004082411458373,"135":0.15107368114907307,"136":0.00001652614023734903,"137":-0.058885155468576346,"138":0.0008287707945823878,"139":0.10986009924972664,"140":0.0001175182969491952,"141":0.190020622784259,"142":0.13764597098721157,"143":0.10592057531543832,"144":0.000020952565055073016,"145":-0.04452445369442852,"146":-0.13665474389010768,"147":0.37333661772190135,"148":0.00006548241592932834,"149":0.2777563423506274,"150":0.3987382425911985,"151":-0.03342455333331814,"152":0.000009207150693424853,"153":-0.1035948250528715,"154":0.21933160423911652,"155":0.07790772251710319,"156":0.000012570543233046743,"157":0.4150112031028329,"158":0.11174050530798185,"159":0.6471052963040596,"160":0.000029392177202527716,"161":-0.07158860565328347,"162":-0.1173592474980179,"163":0.0055815437721856076,"164":0.000024519283752544187,"165":-0.013993525514982362,"166":0.20276816055472285,"167":-0.0868981334493675,"168":0.00001002380899305904,"169":-0.12184963042061382,"170":-0.07958029064337374,"171":-0.0029299174556820552,"172":0.000043134548415794504,"173":0.02723412537625773,"174":0.38006440409974407,"175":0.2443230535334284,"176":0.000013453684465067052,"177":0.06915053771272128,"178":-0.05806385754417261,"179":0.03547116364582623,"180":0.00002481923588519109,"181":-0.04621036865731243,"182":0.3817623925045538,"183":0.30005343165969656,"184":0.000023542547275127705,"185":0.31482428028178006,"186":-0.19913523818883672,"187":0.0785112916147839,"188":0.000018903090954456005,"189":0.015669777970129056,"190":0.4536465929701473,"191":0.08728162313248349,"192":0.000004632839249166178,"193":0.23714910550601445,"194":-0.02379425917329633,"195":0.06476125607860002,"196":0.000011872375171609651,"197":0.15196960325067027,"198":0.18537523125146868,"199":0.025121921414017485}},{"sx":5,"sy":5,"depth":8,"w":{"0":-6.456995882816103e-7,"1":-0.0000013443450256146824,"2":-1.1358898733879516e-7,"3":-0.000002107228373767272,"4":-4.968739221103325e-7,"5":-0.0000016261797985789946,"6":-7.003082226506028e-7,"7":-0.000002234530610126137,"8":-7.692271252073695e-7,"9":-4.633546515265917e-7,"10":-2.849595907159114e-7,"11":-0.000001042013593992909,"12":-6.8995398787731e-7,"13":-6.70841901177801e-7,"14":-0.000001271120588340622,"15":-0.0000010808998036526936,"16":-7.787131015535366e-7,"17":-5.123919324981821e-7,"18":-5.686316051773172e-7,"19":-0.0000025794342674736987,"20":-9.530930793891453e-7,"21":-4.1068167436732087e-7,"22":-0.0000011250270476546084,"23":-0.0000011541172344902029,"24":-3.8350785662288556e-7,"25":-4.1530526605332386e-7,"26":-3.1746897487992735e-7,"27":-1.4028070584763508e-7,"28":-6.184937413913855e-7,"29":-9.449069224278341e-7,"30":-5.762302271405288e-7,"31":-6.985644682020755e-7,"32":-3.19625097257364e-7,"33":-0.0000013008897459318536,"34":-8.309136555869828e-7,"35":-5.131610146908015e-8,"36":-9.302468125605213e-7,"37":-0.0000011579645624779203,"38":-6.959656083165144e-7,"39":-0.0000017819905322254452,"40":-0.0000012207077794133398,"41":-0.000001218454662028968,"42":-1.910783687240656e-7,"43":-0.0000013432331203906562,"44":-6.829696876956573e-7,"45":-7.542535319366678e-7,"46":-4.894508981415356e-7,"47":-0.0000015168532359241675,"48":-6.086654189705869e-7,"49":-2.580883803849556e-7,"50":-3.452134615767252e-7,"51":-7.348074451875504e-7,"52":-8.982061204932151e-7,"53":-4.581914183210478e-7,"54":-8.856414692974636e-7,"55":-6.13908336089163e-7,"56":-7.912522552665179e-7,"57":-1.5251592709275952e-7,"58":-9.067412596686586e-7,"59":-0.000002387081781263953,"60":-0.0000011414036422594863,"61":-4.254839645802146e-7,"62":-0.0000013631686611944208,"63":-6.785373256362386e-7,"64":-4.211296686243469e-7,"65":-3.31172534386501e-7,"66":-3.7693618875191345e-7,"67":-2.3753945635384304e-7,"68":-5.045439308694749e-7,"69":-6.398229286075411e-7,"70":-5.971265162146888e-7,"71":-7.826671799005367e-7,"72":-6.085612384164188e-7,"73":-5.83970781978137e-7,"74":-7.678288390095935e-7,"75":-1.7303662178948502e-7,"76":-9.115520117514113e-7,"77":-0.0000013240428660240888,"78":-0.0000012885923394379934,"79":-0.0000010079620344777379,"80":-8.020854074540643e-7,"81":-9.073416887750283e-7,"82":-3.292358813257977e-7,"83":-0.000001026216784782756,"84":-8.520165306126208e-7,"85":-0.000001452539349935656,"86":-7.854567198389949e-7,"87":-7.384169471409072e-7,"88":-5.642883766466377e-7,"89":-7.666822764034884e-7,"90":-4.0603959750777923e-7,"91":-9.742887807079413e-7,"92":-8.694345550740721e-7,"93":-0.0000010472885546259424,"94":-0.0000012751511928800711,"95":-0.0000016415351313196422,"96":-8.731167517011552e-7,"97":-3.64837947015327e-7,"98":-8.015362275253421e-7,"99":-0.0000024840461773832027,"100":-7.962190745013311e-7,"101":-9.289731048830581e-7,"102":-0.0000014861329418466368,"103":-0.0000014871987263150308,"104":-5.947534337231981e-7,"105":-6.038608494285585e-7,"106":-4.673692400567224e-7,"107":-4.6902713185730643e-7,"108":-6.712401305273986e-7,"109":-0.000001059644705353969,"110":-8.727195793649883e-7,"111":-9.805727170539753e-7,"112":-7.487280087876948e-7,"113":-0.0000015285651414014059,"114":-0.0000017626529096666933,"115":-4.0618295418076225e-7,"116":-8.829838087987744e-7,"117":-0.0000012754524438144244,"118":-0.0000013655579788818817,"119":-0.0000016363659175263177,"120":-1.547885671287388e-7,"121":-6.008706569203037e-7,"122":-5.392125776139037e-7,"123":-0.0000010854068000018145,"124":-8.789214785709761e-7,"125":-5.832157385911313e-7,"126":-0.0000022957831413183093,"127":-6.293160827298043e-7,"128":-4.6414309047689703e-7,"129":-3.6642061670610687e-7,"130":-4.182850107392768e-7,"131":-0.0000013674111602509035,"132":-4.119265069073096e-7,"133":-5.202025972895161e-7,"134":-0.0000011672790503572381,"135":-6.083669977025844e-7,"136":-4.0038591802676425e-7,"137":-3.5381242283953995e-7,"138":-8.782605455749687e-7,"139":-0.0000015824155937570395,"140":-4.7093602867382985e-7,"141":-3.994933570268803e-7,"142":-8.403965311905827e-7,"143":-5.627444677720738e-7,"144":-2.264558746862806e-7,"145":-3.334179391210342e-7,"146":-9.085698952017594e-7,"147":-7.468548888505031e-7,"148":-5.652088256453616e-7,"149":-3.263950543689596e-7,"150":-0.0000013155186005456195,"151":-5.147124080448473e-7,"152":-3.592457384813e-8,"153":-0.000001054876481780559,"154":-0.000001888259065862329,"155":-3.0907208205928504e-7,"156":-5.886634967501232e-7,"157":-0.0000011377478345269898,"158":-0.0000015215593108560358,"159":-0.000001381694514737317,"160":-2.3749461566027182e-7,"161":-0.000001075380638171726,"162":3.35713480582219e-7,"163":-8.178887189784232e-7,"164":1.9809853011057096e-7,"165":3.2243597509792975e-8,"166":-4.094178753098942e-7,"167":-2.2172519928613182e-7,"168":-3.1717450758474535e-7,"169":-8.773950553365197e-7,"170":-4.182300281344222e-7,"171":-7.151346198769458e-7,"172":4.6026955357770707e-7,"173":-1.2150591261959428e-7,"174":-1.430767586933627e-7,"175":-0.0000010273578162470543,"176":-2.8638857559020677e-7,"177":-0.0000011632264206355187,"178":3.506058955238038e-7,"179":-0.0000011201356630453209,"180":3.974707097655684e-7,"181":-4.296296986825292e-7,"182":6.932863219512099e-8,"183":-8.946904591076241e-7,"184":-7.858726915263188e-8,"185":-8.009646247280088e-7,"186":-2.6322152360531495e-8,"187":-2.092837275161983e-8,"188":-2.788695180205099e-7,"189":-3.332425903680033e-7,"190":6.434185376299452e-8,"191":-5.989272377697103e-7,"192":-3.2994799965151774e-7,"193":-0.0000012504562219201783,"194":-0.0000016790295698598006,"195":-6.853398743013052e-7,"196":5.6867030111248975e-8,"197":-0.000001117568755103318,"198":-7.345911233296001e-7,"199":-0.0000012240964669976135}},{"sx":5,"sy":5,"depth":8,"w":{"0":0.000022873101199464715,"1":0.059648954321295855,"2":0.18635675999927434,"3":0.07501578917125756,"4":0.00005531434245991163,"5":0.004852762216650715,"6":0.05130401141636015,"7":0.07984561990474516,"8":0.000024566719069907284,"9":0.1368568196605674,"10":0.1971863812176115,"11":0.016886330962052637,"12":0.00003580115647000623,"13":0.08445608094852203,"14":0.21825758554391284,"15":0.047150433833462874,"16":0.000027343679610636704,"17":0.17781219519218078,"18":0.2002680672798819,"19":0.1917803483598417,"20":0.0000456992995685772,"21":0.27919362698007594,"22":0.2332605657044184,"23":0.028429646761487386,"24":0.000026664771710168154,"25":0.1742584115941177,"26":0.22120668400821777,"27":0.15780244099698826,"28":0.000018256698563590606,"29":0.20203221421801085,"30":0.21634072984289435,"31":-0.17370073521938678,"32":0.000019669290148550535,"33":0.23799640601218824,"34":0.16940346016835373,"35":0.1391603322053745,"36":0.000018877018136334037,"37":0.09790290131722426,"38":0.1297048809144789,"39":0.07151098236194328,"40":0.000018541676335345064,"41":-0.02291953113833263,"42":0.024594511535021974,"43":-0.020146683904147145,"44":0.0000323925147904771,"45":-0.1326218139954697,"46":0.03253479067540696,"47":-0.02856602722142001,"48":0.00002568994571252056,"49":0.15544038920570857,"50":0.006405900904053315,"51":-0.04027525733192111,"52":0.000005851977292461687,"53":-0.006812672842129949,"54":0.009309587541787541,"55":0.20926799346842917,"56":0.000008642609483784945,"57":0.3450652026089904,"58":0.0065535632141922855,"59":0.012391581373154548,"60":0.000009420070813931709,"61":0.01773483587529904,"62":0.007879870682703372,"63":0.08406081396782512,"64":0.000011289651794107887,"65":0.2474268233349128,"66":0.12350049027067238,"67":0.09403459133305075,"68":-0.000011354721063163788,"69":0.02850892347952257,"70":0.08500038447115481,"71":-0.17763133594150635,"72":0.000014714527648010622,"73":0.2574471684490494,"74":0.21778807729071184,"75":0.017607151361048005,"76":0.0000011258284971182287,"77":-0.03480173680652326,"78":0.06502795088369574,"79":0.05242883142510636,"80":0.00001666626951895816,"81":0.05305426063595873,"82":-0.08576776157317752,"83":0.19589608073976275,"84":0.00004048267944399784,"85":-0.062493477350787814,"86":0.2674998214905277,"87":-0.2432097401528379,"88":0.000009227506190259498,"89":0.12071449573059309,"90":-0.24136166599857725,"91":0.16698713461577805,"92":0.00003602178531226344,"93":-0.11901433246010518,"94":0.04531433937865812,"95":0.12432502453840992,"96":0.000005271680659646627,"97":0.15649099338058606,"98":-0.19931536035088324,"99":-0.1071001549426635,"100":0.00008480599517286915,"101":-0.011207006179127012,"102":-0.2451742126416462,"103":0.3533862041171949,"104":0.000011206754246583009,"105":0.2277779978198292,"106":-0.41200386687879903,"107":-0.08378157056886017,"108":-0.000009147781252386901,"109":-0.0059045258465769,"110":-0.09635961065208698,"111":0.2794113663010922,"112":0.00001262043232772873,"113":0.1789262549498243,"114":-0.1781036007576232,"115":-0.1422516674606726,"116":-0.000008541440189707754,"117":-0.05238160096497437,"118":-0.09635418781904893,"119":0.13002992533381313,"120":0.000009878961486089035,"121":0.08766116490590078,"122":-0.11385472446619647,"123":0.10084842940946466,"124":0.0000072246951094814844,"125":-0.14053953940917194,"126":0.40895526851318664,"127":0.24006828127694366,"128":0.000015240630178552609,"129":-0.11307560400669558,"130":-0.33953568799787853,"131":0.08375975168133444,"132":0.000053281264778292614,"133":-0.0014348204663174626,"134":0.5123956407351962,"135":-0.2200568034727856,"136":0.0000030749420707550836,"137":-0.10755798525203535,"138":-0.36165073859500807,"139":-0.045987791188901325,"140":0.00011564959937492123,"141":-0.04639677868334545,"142":0.38749374118846724,"143":-0.08641499996991227,"144":0.00001149416155543287,"145":-0.04374227672354964,"146":-0.3793179331396681,"147":-0.07634407263841936,"148":0.00009370448735170081,"149":0.1010939235264788,"150":0.015901756203995813,"151":-0.09652851990588944,"152":0.000002132040175460355,"153":-0.06931436176972199,"154":-0.24873699322900247,"155":-0.0634755583147013,"156":0.00001986121399320452,"157":0.24955751713965008,"158":-0.23061630092976096,"159":0.06310444489015582,"160":0.000010937434851395075,"161":0.2711918344009569,"162":-0.25903073544354127,"163":0.006610320851074111,"164":0.00006195673043815366,"165":0.2634759062279539,"166":-0.004099404124204751,"167":1.0610049879178194,"168":0.000015407484242402558,"169":-0.003613290960992494,"170":-0.08505185504380033,"171":-0.08104633337597579,"172":0.000018948221102597804,"173":-0.057644229585475396,"174":0.23756379521360793,"175":0.3465719639165135,"176":0.000020049077497309714,"177":-0.2869227252211363,"178":-0.17287907991316218,"179":-0.11986404711248455,"180":0.000014563147380339936,"181":-0.03430396996415739,"182":0.37635455058238204,"183":-0.20039744973623072,"184":0.00001401721003581019,"185":-0.1415365900935136,"186":-0.051994336990497866,"187":0.01885501877724851,"188":0.00005137601957226827,"189":-0.012793309600381823,"190":0.4607037593297839,"191":-0.1278698542347486,"192":0.000007436101949252162,"193":-0.17590132828287647,"194":0.008103083709887658,"195":0.09076124578145026,"196":0.00003161683479124249,"197":0.10858460974032627,"198":0.3238651485637002,"199":-0.22722032434511077}},{"sx":5,"sy":5,"depth":8,"w":{"0":0.000021080627211544042,"1":-0.01209953739165508,"2":0.016106967240818417,"3":0.11713708658060616,"4":0.000051824444204437824,"5":-0.03785370250318031,"6":-0.04960307398091269,"7":0.1634922104888172,"8":0.000022974646731486077,"9":-0.04223426017638643,"10":-0.019604320822545148,"11":0.03815937640258461,"12":0.000041341101017522204,"13":0.024036383241118214,"14":-0.07206458241991429,"15":-0.049377647900160755,"16":0.00002056843129280368,"17":-0.06237684599085651,"18":-0.10750969334413303,"19":0.1537060934861196,"20":0.00008606043795272066,"21":0.03874675752108282,"22":0.013275869491118643,"23":-0.04109613825025228,"24":0.000024226436836037698,"25":-0.056866437774869126,"26":-0.11945224696407468,"27":0.07720696047239625,"28":0.00009310355505066916,"29":0.13349120585683966,"30":0.16872919468939723,"31":-0.04489170098558429,"32":0.00001720004808811219,"33":-0.010435181734783602,"34":0.02500725775262535,"35":0.011605511664698646,"36":0.000052634646261840325,"37":0.10929926084852058,"38":0.23340145008350546,"39":0.013229989231046558,"40":0.000024098735086275323,"41":-0.02121465579897659,"42":-0.1989501835590315,"43":0.0701192476649673,"44":0.00006770641608645246,"45":-0.07426804104595378,"46":0.014525090974380534,"47":0.22413871462024895,"48":0.000010017826549562054,"49":-0.06346453105941652,"50":-0.03264293047673484,"51":-0.01678588933779856,"52":0.00003748309862653742,"53":-0.03756353253074268,"54":-0.061942642161680016,"55":0.17758444840792595,"56":0.000021946474812219527,"57":0.1560476495202878,"58":-0.054480597670556095,"59":0.0797469813532983,"60":0.000046768028252696484,"61":-0.019421964179891105,"62":0.04811690898182975,"63":-0.07142651187864872,"64":0.00003059907312640834,"65":0.27062698903198623,"66":0.127477174347268,"67":0.04207549362679269,"68":0.00003789516229235379,"69":0.0019141234128669026,"70":0.03291832358373327,"71":-0.11461469384043886,"72":0.000014231415106861553,"73":0.3081276643457899,"74":0.09624108707232133,"75":-0.020533660963701347,"76":-0.000011981381025163023,"77":-0.016439200271556376,"78":0.15566682448584387,"79":-0.028370578032587208,"80":0.000021997034756139823,"81":0.06825487377388272,"82":-0.28089784026934594,"83":-0.033608734893406024,"84":-0.000006473986558019135,"85":-0.04025556071379724,"86":-0.13788955931207592,"87":0.12566373185727514,"88":0.0000218733327425565,"89":0.08357518202616236,"90":-0.2868742669198382,"91":-0.004337167749126287,"92":0.000030277459381652738,"93":-0.09215785059253079,"94":-0.06070954582008128,"95":0.23943928670639616,"96":0.000010418121716023895,"97":0.253085784850961,"98":-0.030982930899743456,"99":0.015707969277694377,"100":0.000014054052649945331,"101":-0.03273080175886243,"102":-0.03688498366778103,"103":0.1998180717658876,"104":0.000006333723463710098,"105":0.28112396820783686,"106":-0.03342550751809301,"107":-0.0031604688916102557,"108":-2.4761537815480867e-7,"109":0.021531726115882548,"110":-0.04652262516351713,"111":0.14602673840904157,"112":0.000007449777998494972,"113":0.3130228188209348,"114":-0.11387580687416868,"115":-0.06473914367374303,"116":-0.000025639875361179036,"117":0.06861548881078126,"118":-0.18363878217921592,"119":0.1450501693195484,"120":0.000019941090083469514,"121":-0.068889667810279,"122":-0.16046818030071316,"123":0.017507739055004235,"124":0.0000249736196193401,"125":0.003981059302081262,"126":0.009955544032035408,"127":-0.0038898261399871164,"128":0.000020529691051976313,"129":-0.07656888041928903,"130":-0.2200898794961774,"131":0.03412134777944217,"132":0.0001093932410290068,"133":-0.06955034458052389,"134":0.06234430600786668,"135":0.06877101681024689,"136":0.000011779195403009713,"137":-0.027518860655338057,"138":-0.2726916191334805,"139":-0.03356612246794451,"140":0.00014614218104404468,"141":-0.0579659749309687,"142":-0.04243869470785897,"143":0.049402916537011725,"144":0.000013042022304728863,"145":-0.03348119495961033,"146":-0.28911303135213573,"147":-0.09071348861273462,"148":0.00009119906843973036,"149":0.26369469952577196,"150":-0.03856064188067159,"151":0.025723759291997796,"152":0.000017352686007169408,"153":-0.10274082046151614,"154":-0.2713441456438494,"155":-0.07231721353102387,"156":0.00004197627576668853,"157":0.3252794393241361,"158":-0.1576708393907034,"159":-0.14265464923354487,"160":0.000014480947202634876,"161":-0.049939422395932936,"162":0.029520039598726462,"163":0.08417798165104991,"164":0.000030390121261074114,"165":-0.0204129549554148,"166":0.03663810688125529,"167":0.009113818620610411,"168":0.000010933828933467464,"169":-0.04957907914908484,"170":-0.14081970206611713,"171":0.015752314508171755,"172":-0.000004212121526802817,"173":-0.03931381541401509,"174":-0.002441949724782228,"175":-0.014350878283436829,"176":0.000009742558923708113,"177":-0.055049964186274135,"178":-0.20050813711548998,"179":-0.05069571041798867,"180":0.00003267978268135061,"181":-0.015770583118912548,"182":0.04338701893700133,"183":-0.09941409437362138,"184":0.000017450716109330543,"185":-0.05895441358864807,"186":-0.10502122194571616,"187":-0.051843592207640135,"188":0.00005127969288985378,"189":-0.03724495716579757,"190":-0.01129979594568394,"191":-0.12771899064229092,"192":0.000011007839036400504,"193":-0.08885117481753087,"194":0.019220515841387113,"195":-0.009409422316846383,"196":0.00004037513892034227,"197":0.03323059757272493,"198":0.12294999778244933,"199":-0.16825626301034352}},{"sx":5,"sy":5,"depth":8,"w":{"0":0.0000023168386417042154,"1":-0.013901327375427899,"2":0.11515702011172883,"3":-0.005879523868152906,"4":-0.00003211645968794618,"5":-0.047020696142948654,"6":-0.17184256112835308,"7":0.052822305193080246,"8":0.000006548052728203478,"9":-0.06773495392919418,"10":0.3804222732571325,"11":0.02733542322488162,"12":1.687209218975217e-7,"13":-0.05687973644738812,"14":-0.23873053802817992,"15":-0.009377534393954732,"16":0.000008547610443848949,"17":-0.07877772242841675,"18":0.3779335272995673,"19":0.15349498427810843,"20":-0.000003073579957753716,"21":-0.02706970046413827,"22":-0.05756639265242232,"23":-0.1546580174308753,"24":0.000030945911734416984,"25":-0.10989097357505218,"26":0.10344214213181666,"27":0.3262513874661946,"28":0.000017743824698312986,"29":0.12346354157303191,"30":0.3036665371243997,"31":-0.17242917595105417,"32":0.000008570413046225279,"33":-0.06102650382349662,"34":0.03243411898059599,"35":0.1949578237622251,"36":0.00003994759121187551,"37":0.002110199933119125,"38":0.32643691405053515,"39":-0.18912296483456092,"40":0.000015417712623185496,"41":-0.1027254423345514,"42":-0.10453851260612701,"43":0.016866972237687246,"44":0.000004353984343953212,"45":-0.0594988780896537,"46":-0.11189544425559377,"47":-0.012687283452813013,"48":0.000008164324904329705,"49":-0.15007831114749454,"50":0.020427337674818382,"51":-0.04053462779044142,"52":-0.000008054188040705441,"53":-0.0000570434783426851,"54":-0.23120437645940806,"55":0.1158728871662981,"56":0.0000025695918313004448,"57":-0.07757856629768027,"58":0.2475002720689799,"59":-0.005101068048460536,"60":-0.000012028490351436936,"61":-0.01807104773324679,"62":-0.09201770187250563,"63":0.17457775273084253,"64":-0.0000012379969450157875,"65":0.15552447767362065,"66":0.02644687199488882,"67":0.2597431268683445,"68":-0.000012480455803316825,"69":0.04885212510769417,"70":0.07329184145439196,"71":-0.024077882653919677,"72":0.0000035473658850279406,"73":0.16701620491503236,"74":-0.010028274337945555,"75":0.07237114584861493,"76":-0.000016703357930408998,"77":-0.06511524377333647,"78":0.28062328307984263,"79":-0.02556373581916765,"80":0.00001779303593617625,"81":-0.14982774260363624,"82":-0.17499095768285866,"83":-0.06910360032274562,"84":-0.00003321569139009665,"85":-0.04129969245734295,"86":-0.161424393735923,"87":-0.08214388775338324,"88":0.000009141258159386215,"89":-0.10797211788276584,"90":-0.11676057354719463,"91":-0.049621140661169134,"92":-0.00003550456163347924,"93":-0.016151083625698646,"94":-0.12157353292093237,"95":0.00552025981251461,"96":-0.0000018039568112566967,"97":0.009009461754103337,"98":0.17406953349527554,"99":-0.01360207949715262,"100":-0.000021950089133805715,"101":0.07991378979952554,"102":-0.0887989335206354,"103":0.39331060886309,"104":-0.0000031976718198194826,"105":0.15253735933764698,"106":-0.14770350869671098,"107":-0.019540019782422553,"108":-0.00001603759565224683,"109":0.13538675011766016,"110":-0.10982863160723667,"111":0.2899320314218927,"112":0.00001206433122808142,"113":0.011687345803757215,"114":-0.14351098631674972,"115":0.08165787373652449,"116":-0.00002758428025318044,"117":0.13048962457580643,"118":-0.07816009413420044,"119":0.06856111955819505,"120":0.0000012825999254633144,"121":-0.036279029883849234,"122":-0.17790579005452153,"123":-0.058294573033045805,"124":0.000028522564199731682,"125":-0.056027097695845504,"126":-0.030295011503746118,"127":0.000008022162276577752,"128":-0.000007514431608006748,"129":-0.04144216820622993,"130":-0.2197678826276927,"131":-0.04210166579229093,"132":0.0000614433211925474,"133":0.06311008926324718,"134":-0.0681409578164984,"135":0.012239166663614808,"136":0.000007041557189908752,"137":-0.02668862898157241,"138":-0.039050300242728486,"139":-0.031117171964508618,"140":0.000024479627210572298,"141":0.19713329718101688,"142":-0.05040943171844827,"143":0.09553600748751695,"144":0.000015514650930517916,"145":-0.08052524459990172,"146":-0.09872405591846077,"147":-0.06663086474633424,"148":0.000014024622082455418,"149":0.2546575337645053,"150":-0.08081195267823198,"151":-0.056315333974077404,"152":0.000012255587016275465,"153":-0.047057130965702174,"154":-0.04664093240925021,"155":0.054401370397995114,"156":0.000018713040676939913,"157":0.031439704083421206,"158":-0.10060245745507507,"159":-0.05895439441269403,"160":0.00001182785588541324,"161":-0.02076654166516764,"162":-0.10351393469119026,"163":-0.051587395344264375,"164":0.00003518744480448965,"165":-0.02037318316250872,"166":0.0552666463046118,"167":-0.028366218349355436,"168":0.000017646062902521655,"169":0.0011301110029927652,"170":-0.1672735242206913,"171":-0.010854427034080948,"172":0.00003376595736619835,"173":0.025937525384420804,"174":0.09211531473191281,"175":-0.08942399571435623,"176":0.00001633536623310335,"177":-0.022637270300318833,"178":0.07458242189394626,"179":-0.04771683492458439,"180":0.000028381139033527802,"181":0.0528974183299638,"182":0.10785893420142034,"183":-0.11337742060387611,"184":0.000024174618016347258,"185":-0.0866240043539714,"186":0.15104640602944508,"187":-0.024105523410903593,"188":0.000012295777500059335,"189":0.034321522737467455,"190":0.11414807816618881,"191":-0.166919548235124,"192":0.000021284203566783806,"193":-0.06962616405584397,"194":0.09401478786258552,"195":0.04173044314629518,"196":0.000026840772412664076,"197":0.026577113434473238,"198":0.12777674699398295,"199":-0.21097933261787544}},{"sx":5,"sy":5,"depth":8,"w":{"0":0.000018666565386074093,"1":0.2592986472820744,"2":-0.20202696599040246,"3":0.0021937168209760364,"4":-0.000009777752668906698,"5":0.005246823984391819,"6":0.06644160473408754,"7":0.34781554882206767,"8":0.000013929207026300974,"9":0.3048094755323605,"10":-0.1527852628639556,"11":-0.08081213707902785,"12":0.000004855023474447892,"13":0.013955219699807432,"14":0.09122069179856672,"15":0.4143280325543811,"16":0.000004764089154531203,"17":0.26433153075753635,"18":-0.2524828487644985,"19":-0.04881251810723455,"20":0.000020137361122500915,"21":0.2909729415808105,"22":0.0037933927716422345,"23":0.39859863278022023,"24":0.000010979464147181396,"25":0.24604538416348565,"26":-0.11216545560679489,"27":-0.007023614537245129,"28":0.000017369972259453634,"29":0.4078460712479357,"30":-0.18772987551033588,"31":0.21004692362817973,"32":0.0000069296386289312615,"33":0.008102704251922848,"34":0.08680850175955103,"35":-0.010048705273712008,"36":-2.3279792114986884e-8,"37":0.1811325949775538,"38":-0.03457981089242881,"39":0.21352821551380805,"40":0.0000294930565907364,"41":0.06880072572675495,"42":-0.2837916340488768,"43":-0.04089692941756522,"44":0.00004877251479731439,"45":0.04488767908702447,"46":-0.11342684023909502,"47":0.2736420273522187,"48":0.000015971211995804138,"49":0.012927586227755918,"50":-0.24656329764495957,"51":-0.08907091833054735,"52":0.00001453698131757023,"53":0.10874802853841764,"54":-0.09238689893024236,"55":-0.0034363275883597245,"56":0.000013517354833411508,"57":-0.051104257535676524,"58":-0.2903395655550232,"59":-0.04059938383448268,"60":0.00005533170526887003,"61":0.14491036671115823,"62":-0.08932014041558484,"63":-0.1533099969486442,"64":0.000017257196623066516,"65":-0.018025916315257632,"66":-0.2064513441995199,"67":-0.06795388366508358,"68":0.00001408153213804145,"69":0.10870727746528236,"70":-0.20439087451566854,"71":-0.1958427733093964,"72":0.000018083136690486037,"73":0.0651795465742631,"74":-0.06966409339652255,"75":-0.03212421218525335,"76":0.0000011469868836415819,"77":0.12065536649729558,"78":-0.07597533961480775,"79":-0.048716809298282586,"80":0.000008734347727519091,"81":-0.07281995496751097,"82":-0.1411909008597487,"83":-0.07464888728434146,"84":0.0000396597971515949,"85":-0.025938816045633042,"86":-0.19391055626502915,"87":-0.15910016490691065,"88":0.000013926857735445848,"89":-0.0667896949949333,"90":0.0018212231931528527,"91":-0.10584276224629963,"92":0.000019973326425125347,"93":0.0006794841204420842,"94":-0.06333459682430755,"95":-0.20867876724369416,"96":0.000023014429925231544,"97":-0.002918434741559267,"98":-0.08648750175598696,"99":-0.018071681609689156,"100":0.00004796417692201377,"101":-0.01887801310656579,"102":0.28520734540158627,"103":-0.24885468611082617,"104":0.0000025979486174116963,"105":0.0163425701164966,"106":-0.10262268158587158,"107":-0.05785078817547227,"108":0.00005433582683838285,"109":0.039897621091923956,"110":0.26134936057295854,"111":-0.06255455123597714,"112":0.000014533337820346208,"113":-0.012341204187692146,"114":-0.0839823289766521,"115":-0.09258707645458322,"116":0.00007654210371246005,"117":0.1043549126674483,"118":0.21390010393801207,"119":0.04683249462434146,"120":0.00003865092316579333,"121":-0.05285673773461834,"122":-0.021807773702910187,"123":-0.05573117627142716,"124":0.0000361821685598501,"125":-0.14138320417505962,"126":0.09276842254804976,"127":-0.08314231969417368,"128":0.000015678239555006922,"129":-0.09519004328395782,"130":0.07443137514668,"131":-0.03772256988876686,"132":0.000024225816275388082,"133":-0.06311963045963824,"134":0.27386731790318963,"135":-0.19106199570992574,"136":0.000015494180571859417,"137":0.1092136022133651,"138":-0.006168826818603279,"139":-0.025482639001145523,"140":0.00004757919984670064,"141":-0.08948897762249361,"142":0.23555240780910025,"143":-0.1783576665497066,"144":0.000006925889533536552,"145":0.10347889016375461,"146":0.09518906355041412,"147":-0.1279807811080442,"148":0.00005386134192434112,"149":0.05293076058137242,"150":0.43637051122532144,"151":-0.015272450453174432,"152":0.000033748148552213366,"153":0.05987653570571985,"154":-0.04632387203816539,"155":0.11226677137908737,"156":0.000024762093973254804,"157":0.08500983011514343,"158":0.6575358585734831,"159":-0.03740927816346951,"160":0.00003075156584862921,"161":-0.01639857987955179,"162":0.1943338155157699,"163":-0.008122381275651357,"164":0.000027018358200247497,"165":-0.13075254370968437,"166":0.20198016411956302,"167":-0.09945883220300167,"168":0.000006322320498081415,"169":0.10491919664046474,"170":0.25926500105561623,"171":0.017384782153684036,"172":0.00003516189773749971,"173":-0.1319596878554178,"174":0.314521251881179,"175":-0.10409719678557815,"176":0.000008092063836781105,"177":0.2641945425793933,"178":0.0715372545123266,"179":-0.054570912941603426,"180":0.000030158875202084956,"181":-0.07088545279670132,"182":-0.018983773161684526,"183":0.0895403537546011,"184":0.000013799219812498076,"185":0.3628760740297423,"186":-0.020830660683840617,"187":-0.03786453152091717,"188":0.000011440678077291606,"189":0.13734160853439545,"190":0.04568719680200219,"191":0.34373861548282447,"192":0.00001191236229779915,"193":0.5630963839053404,"194":-0.10477308321867995,"195":0.06373880514517527,"196":-0.000027443824469190088,"197":0.025133707269111502,"198":0.14213367951395203,"199":0.3519503427247277}},{"sx":5,"sy":5,"depth":8,"w":{"0":0.00001341347754784777,"1":-0.03693576307871796,"2":-0.09776971715137403,"3":-0.060559647961442274,"4":0.00004132832011135681,"5":0.00460077876570762,"6":-0.11356750574174274,"7":0.0713640378471208,"8":0.00002060520970662422,"9":-0.019915226213608563,"10":0.10365105001000191,"11":-0.03775326985719407,"12":0.000006670658729103718,"13":-0.09344539921547063,"14":-0.16142361818321763,"15":0.006251766616536231,"16":0.000006259885695615731,"17":0.08876903280509171,"18":0.08218689242853375,"19":-0.019244016155073627,"20":0.00003015783960851759,"21":-0.10470812299510125,"22":-0.09511886947879324,"23":0.17279306900921496,"24":0.000015217762530976133,"25":0.05698480533749175,"26":-0.06958453237177156,"27":-0.02246008659042305,"28":0.00001378053310400545,"29":-0.00913864707705771,"30":0.05268028075867249,"31":0.22584179027193318,"32":0.0000180635750342808,"33":-0.04093862993395302,"34":-0.238725961697528,"35":-0.05067084302126565,"36":0.00001507377666067632,"37":-0.052197615924145284,"38":-0.14866021715026903,"39":-0.00532117614751771,"40":0.00001936135825560084,"41":-0.06900899565524266,"42":-0.14731572281934655,"43":-0.02262832422910527,"44":0.000044727564156706926,"45":-0.01930590918226504,"46":0.13759037038769936,"47":-0.1485295637200808,"48":0.00001989015789590962,"49":-0.08227799123578987,"50":-0.061678830506968166,"51":-0.055056806102358434,"52":0.00008122454338801614,"53":-0.06353314201739885,"54":0.07076847636978087,"55":-0.02013734123909614,"56":0.000010692045815306622,"57":-0.01863804088675343,"58":-0.12692973582286038,"59":-0.024019876355446,"60":-0.000023720574815575607,"61":0.011372589865285413,"62":-0.005199013114853386,"63":0.05509661627404031,"64":0.000008486635162370634,"65":-0.060482281142069716,"66":-0.07287798850208443,"67":-0.009095957508873188,"68":0.000034215188017717643,"69":0.043844981182338115,"70":-0.004207213359923437,"71":0.30614957910559015,"72":0.00002160809938318726,"73":-0.03753555817202092,"74":-0.3401556245654595,"75":0.05319848541356408,"76":0.000008725831814969638,"77":0.13985335028513501,"78":0.169675278225314,"79":-0.04620480643685211,"80":0.000027449563833312275,"81":0.1656357451501909,"82":-0.026876412026926026,"83":0.1300188314021187,"84":0.000009518445593075905,"85":-0.010376724287197062,"86":0.36809123948613753,"87":0.041920011617129486,"88":0.000023262911322964553,"89":0.014200401541165239,"90":-0.11846458610554143,"91":0.013535741874847514,"92":0.0000908044701394101,"93":-0.07005283567457044,"94":0.3462900572224082,"95":-0.024075714432737427,"96":0.000008964849733089924,"97":0.0010976673331206483,"98":-0.07974577743088462,"99":0.18195870158857333,"100":0.00009541062602034966,"101":0.06258176458385913,"102":0.423596955623121,"103":-0.1340073211617693,"104":0.00001507045824386757,"105":0.009231472705147376,"106":0.2422722162791068,"107":0.1104171462697675,"108":0.00003454040189774933,"109":0.10976364281639386,"110":0.2931704309318751,"111":0.04006588335527683,"112":0.00002099722464818741,"113":0.07550451198498123,"114":-0.026633154233668858,"115":0.11104422741198498,"116":0.000018546543608118015,"117":-0.05764344257056346,"118":0.343129535061215,"119":-0.044096901232233005,"120":0.00001681090283796902,"121":0.38852698903276867,"122":-0.13938747818741493,"123":-0.021166548421221523,"124":0.000008568532394732927,"125":0.10020435735182569,"126":0.12522553459507937,"127":0.5216095777893122,"128":0.000013881248571504137,"129":0.3143927622818214,"130":0.01883594799641053,"131":-0.07313318658603862,"132":0.000021991700147082506,"133":-0.008127809982161812,"134":0.37858834584964485,"135":0.24579413580469295,"136":0.000006329099564885032,"137":0.40792660440706163,"138":0.045762686727388556,"139":0.1603441150982801,"140":0.000023114603534178423,"141":-0.08090054520690607,"142":0.5869434131803211,"143":0.10377735967049563,"144":0.0000037748942578143573,"145":0.18099310926794246,"146":0.12404447569415902,"147":0.03448711476242008,"148":0.000013099580022998941,"149":-0.027852488774066146,"150":0.4428731930187615,"151":-0.015740572812955343,"152":0.000013381057568155803,"153":0.17964087413580965,"154":0.0851876640787361,"155":-0.048598127750210086,"156":0.000017919579203872885,"157":0.008462101774189013,"158":0.07876190098946254,"159":-0.045881460073561364,"160":0.00001187668737853014,"161":0.1155519647212456,"162":-0.012408111046157758,"163":-0.05068403607991187,"164":0.000027669093915400066,"165":0.05918490775449515,"166":0.0631676002540285,"167":0.05188355269369885,"168":0.000007859769742920706,"169":0.21029089699137968,"170":-0.09648691499196797,"171":-0.0443192662573591,"172":-0.00005213863751398434,"173":0.00866932205569198,"174":0.013143858538360576,"175":0.11495153437777493,"176":0.000010985846752576414,"177":0.19795804390550148,"178":-0.30916590245359066,"179":-0.08750649788763407,"180":-0.000010763781716256454,"181":0.07571925080233013,"182":0.0040878089993510724,"183":0.08951006492508906,"184":0.000010871342537524191,"185":0.08805846193323638,"186":-0.1752488734986707,"187":-0.05490209728771987,"188":9.516455358575034e-7,"189":-0.060791331752766506,"190":-0.0008876520616349766,"191":-0.0377588587080147,"192":0.000015595547424718724,"193":-0.04289184274860516,"194":-0.20164839156365688,"195":0.0014136340922400207,"196":-0.000019961174157295333,"197":-0.03386021090720336,"198":-0.03954518721927296,"199":-0.1820938150786786}},{"sx":5,"sy":5,"depth":8,"w":{"0":0.000008569900895984495,"1":-0.12056128287972659,"2":-0.20660544245890866,"3":-0.041978703756792454,"4":0.000005303767174183578,"5":-0.041974396947834065,"6":-0.12248672685004736,"7":0.03079707143203322,"8":0.000028025566620031914,"9":-0.10500551858016108,"10":-0.1341714904497979,"11":-0.02589343093330451,"12":-0.000016937117856581794,"13":-0.013986278735613917,"14":-0.10822556794252844,"15":0.09099244795705586,"16":0.0000216960154226635,"17":-0.0330531974214647,"18":-0.1440712762483986,"19":-0.01596677725138128,"20":0.000001996072564203906,"21":0.08665790726875953,"22":-0.12544244064036583,"23":0.07998683265173669,"24":0.000018234726452771424,"25":-0.08354456961951236,"26":0.1237807016960681,"27":-0.022870234648922703,"28":0.00004490846705619184,"29":0.08408237163434885,"30":-0.1403006161277455,"31":0.23330136900152051,"32":0.0000058536649075930165,"33":-0.07391137820682131,"34":0.10527948952669129,"35":-0.010099077409527946,"36":0.000028782939993900988,"37":0.05529055777658229,"38":-0.20943793240582925,"39":0.07963327913751853,"40":0.000022087856411923207,"41":-0.13589410205095068,"42":-0.156189975885863,"43":-0.07380431207812284,"44":0.00005119962151391107,"45":-0.07369680383170489,"46":-0.14590739005714304,"47":-0.11860883310117731,"48":0.00002618161148272255,"49":-0.10230294205626059,"50":-0.18306190619106966,"51":-0.054623521794197556,"52":0.000013831869391957441,"53":-0.03720540912658839,"54":0.005817774442028349,"55":-0.13735264916660392,"56":0.000016644513739008916,"57":-0.0865336516119966,"58":-0.27181183401572934,"59":-0.01110134003059907,"60":0.00004802932080462291,"61":0.0050924210624010615,"62":0.11401237937180358,"63":-0.15868790685436965,"64":0.000021473798529062602,"65":-0.07830863593504399,"66":-0.06712141442279149,"67":-0.029228269330009077,"68":0.00003177724825034061,"69":0.03593313410298907,"70":0.09472799260515714,"71":0.008665178114662225,"72":0.000004955396613660876,"73":-0.12095717682890315,"74":0.13179004522586735,"75":-0.05825885633760525,"76":0.00004157170507612094,"77":0.03784627518242481,"78":0.27612985473548823,"79":-0.048514128406999764,"80":0.000026298994080717212,"81":-0.09033601014560243,"82":-0.19496870062970173,"83":-0.05923514070131401,"84":0.00001115288177018576,"85":-0.03492796852867919,"86":0.09990459588049216,"87":-0.16745373194494279,"88":0.000030254371269460493,"89":-0.004497996354801971,"90":-0.1374082372471526,"91":-0.003462013422009668,"92":0.0000249238069413698,"93":-0.09121184856851265,"94":0.26905050627140314,"95":-0.1254436848609299,"96":0.000021321015141869175,"97":0.10511827726578049,"98":-0.13534599441992318,"99":-0.019637407438230236,"100":0.000007936725633633587,"101":-0.0634481236492711,"102":0.2891403319163471,"103":-0.07643141600721505,"104":0.000019058607765750517,"105":0.06691312728522321,"106":-0.0019097526569973194,"107":-0.02636629305748717,"108":0.00005004436750731203,"109":-0.042392575730008875,"110":0.08373478223262062,"111":-0.034624039782119316,"112":0.000009326372014670788,"113":0.15081157220271993,"114":0.17933455297773293,"115":-0.04280524049699668,"116":0.00002752704704720243,"117":-0.03227232315122488,"118":0.14611397804819382,"119":-0.12494411044152362,"120":0.000020870619503544636,"121":0.04814859356541339,"122":-0.05914560070852762,"123":-0.027231123242005866,"124":-0.0000054511904345897884,"125":-0.076767503165578,"126":-0.062264439478072676,"127":-0.1981476485609473,"128":0.000023243197122012185,"129":0.024967196440438714,"130":0.041655375380476985,"131":-0.06270866261545631,"132":0.00000809984551805901,"133":-0.10353795547710293,"134":0.07932170331508137,"135":-0.24115313479091827,"136":0.000022203887875868172,"137":0.11679815287568253,"138":0.033180992966571204,"139":-0.008929731075249919,"140":0.000069663051444118,"141":-0.05027881870961348,"142":-0.013043962134494987,"143":-0.17554626056979253,"144":0.000020132507041833084,"145":-0.024773430133343342,"146":0.07760709616550883,"147":-0.0350811858711967,"148":0.00010358201987785342,"149":-0.06417440479664294,"150":-0.11510175770731736,"151":-0.1327390587480978,"152":0.000015003414519506087,"153":0.04859217743780832,"154":0.11766687192346387,"155":-0.08717570581314275,"156":0.00007336071976232014,"157":-0.08774352391095491,"158":-0.21786182796467804,"159":-0.09169515614524464,"160":0.000015620421593186092,"161":-0.15264521907841075,"162":0.16004640803210796,"163":-0.0762742210721397,"164":0.000048628933448698785,"165":-0.07999424545786306,"166":-0.029928409511512925,"167":-0.1436220009638783,"168":0.000032580738319749315,"169":-0.1765783446648618,"170":0.47207329776069956,"171":0.011037263305418784,"172":0.0000037309411763968248,"173":-0.05046116498422934,"174":0.10502446528383969,"175":-0.18643181431928513,"176":0.000012483189661347492,"177":-0.14794785311376815,"178":0.28614088761974943,"179":0.17680044489969918,"180":0.00008180276901421263,"181":-0.06829270702071621,"182":0.02562822686572171,"183":-0.21552973838991707,"184":0.00003282990579460116,"185":-0.10584024268750875,"186":-0.09778297991078114,"187":0.1329361809645263,"188":0.00003129480445452846,"189":-0.14378048901807602,"190":0.00722625120464785,"191":-0.1926670745644811,"192":0.000014909775072297327,"193":-0.10562774060917621,"194":-0.2048787183755805,"195":-0.0008560781333567323,"196":0.00005318070387775769,"197":-0.16265956312047294,"198":-0.1252414961856246,"199":-0.13474978186446704}},{"sx":5,"sy":5,"depth":8,"w":{"0":0.000023897923079369745,"1":-0.05271450516783472,"2":-0.2314057260375841,"3":-0.12125448486641892,"4":0.00006149313592577967,"5":-0.025197715902370372,"6":0.48559445495134784,"7":-0.25453833776713336,"8":0.000023225587367907847,"9":-0.056955820382790456,"10":-0.2811755328267515,"11":-0.04541599667826803,"12":0.00005099965079345881,"13":-0.03839706549404657,"14":0.30769790468105934,"15":-0.08035059072625408,"16":0.000014698939085642955,"17":-0.09128018808592679,"18":-0.25006706272311885,"19":-0.10628064684124106,"20":0.00003805536332185642,"21":-0.006814505188678136,"22":0.06067716760056893,"23":-0.019437414319515747,"24":0.000014813457100158553,"25":-0.04377477277296214,"26":-0.24350855136983932,"27":-0.03963176227099291,"28":0.000052123303095851716,"29":-0.018022682219641935,"30":-0.08761672669882148,"31":0.08077393629609025,"32":0.000005836272855547049,"33":0.025676927780445905,"34":-0.09492966250549408,"35":-0.023157441905115643,"36":0.000041094707858308566,"37":0.09844456243346772,"38":-0.21932761342397888,"39":0.17862602791272067,"40":0.00001832775136286409,"41":0.2806974067942681,"42":-0.03663098722612724,"43":-0.12188869730139058,"44":0.00002470729758935126,"45":-0.05129916357110121,"46":0.37260480676522034,"47":0.059503936952561995,"48":0.000023637400625721553,"49":0.02401284329553707,"50":-0.1470851493697485,"51":0.10818570496441679,"52":0.000057485289715562714,"53":0.06515281645341472,"54":0.40695925995230214,"55":0.029203194933854412,"56":0.000014117433866817467,"57":-0.059360586378684306,"58":-0.25324594898845354,"59":-0.024792999996648087,"60":0.00010396098325603799,"61":-0.006672224681031235,"62":0.40774695789944293,"63":-0.02994118983144199,"64":0.000018041068238883757,"65":-0.07306691936623518,"66":-0.28002437714216893,"67":0.03507994590475991,"68":0.0001248616927355918,"69":0.050626124904072985,"70":0.2702782095555162,"71":-0.03566067652923757,"72":0.00002107671015754085,"73":-0.09823643281233221,"74":-0.10344307752802857,"75":-0.055179928032878287,"76":0.00010231628000816882,"77":0.21189526047624385,"78":0.4313892536507558,"79":-0.135915310837861,"80":0.000011815837825552714,"81":0.17717760938770538,"82":-0.10964822943171619,"83":-0.039254471020554176,"84":0.00002473297653829336,"85":0.09374985330119048,"86":-0.01673677443325589,"87":0.5185082810951384,"88":0.0000147752610932588,"89":0.12890384627869686,"90":0.01356549395035675,"91":0.0320242335112097,"92":0.000016439248308180186,"93":0.06738202313147118,"94":0.04162160038551752,"95":0.4147219273917025,"96":0.000023573573064948267,"97":0.03420875125664053,"98":-0.19636746867107524,"99":0.01859674078723216,"100":-0.00000563122149579248,"101":0.03606219407683553,"102":0.2759430384813366,"103":0.19157241945825315,"104":0.000010587820384208705,"105":-0.02068727887911827,"106":-0.1599716383259889,"107":0.08789639132633421,"108":0.00003765343894581515,"109":-0.06462395413191699,"110":0.3813596296007637,"111":0.037636030225334544,"112":0.000011889872811724953,"113":0.14276741880316937,"114":-0.010847137748842566,"115":0.04325454380093594,"116":0.000017227833768308453,"117":-0.06970285453523946,"118":0.34278923567270164,"119":0.12841722892803772,"120":0.0000053058313692798985,"121":-0.05039919950850628,"122":0.1929362035656077,"123":0.14339952539649675,"124":0.00006840425172709216,"125":0.13451288314110244,"126":0.0515719187303438,"127":0.12369527569154329,"128":0.000012691765448396486,"129":-0.07863673085458461,"130":0.0914081989881354,"131":0.031191551998385986,"132":0.00003215531566848426,"133":0.0945564745591875,"134":-0.1345706496549071,"135":0.35367859886864683,"136":0.000009070937164521064,"137":0.004859877971414957,"138":0.1097028273943362,"139":0.06381010565470387,"140":0.000013647940459771923,"141":0.05565660872064177,"142":-0.01478058140971791,"143":0.2288152046647302,"144":0.000013925753520373139,"145":0.002172181801293445,"146":-0.0022892882486524498,"147":0.06524078521711262,"148":0.000016612939758141286,"149":-0.023784200609812702,"150":0.09230225954229289,"151":0.07908363806826063,"152":0.000014010946800609805,"153":-0.06941879951643246,"154":-0.11711686158522544,"155":0.049646587507155546,"156":0.000036166754754657175,"157":0.1212263523772791,"158":0.07022002350902086,"159":0.040275206517926994,"160":0.000016640933307908144,"161":-0.021339211165839787,"162":0.04417305930028033,"163":0.29396096898746915,"164":0.000044448999999206114,"165":0.05752829410725536,"166":0.27888287940407896,"167":-0.20985081081531287,"168":0.000011132314382418437,"169":0.11634521142497635,"170":0.0793254509087464,"171":0.09005612076496822,"172":0.000014957054948134627,"173":0.10169178778744192,"174":0.07773266872357135,"175":-0.09277491131917932,"176":0.000010434000184194797,"177":0.02659916783127374,"178":0.09291365821698808,"179":-0.025882799999340525,"180":-0.000024492998386388467,"181":0.12554532373796315,"182":-0.06490990564867868,"183":0.12107586851154725,"184":5.244407431172155e-7,"185":-0.0009571743253092633,"186":-0.03622501193182603,"187":0.03349201134296021,"188":-0.00005370225364712212,"189":0.019515834598016913,"190":-0.08539714064203317,"191":0.06615537957639522,"192":0.000011883137983244223,"193":-0.04894763515790107,"194":0.0005061191286769259,"195":0.08942498680188382,"196":0.000002424549171409123,"197":0.08090022977373083,"198":-0.08577721143040615,"199":-0.06800860145393724}},{"sx":5,"sy":5,"depth":8,"w":{"0":0.000015679286656810038,"1":0.05624311202865682,"2":-0.4231771418464122,"3":-0.12281158069882887,"4":-0.000011623271211755621,"5":0.004942219972531486,"6":0.14070607835923185,"7":0.1699193693340368,"8":0.00002202880545317461,"9":0.03911089327307347,"10":0.10613773326560635,"11":-0.10644444557476948,"12":0.000011368420024372036,"13":0.18337728835916842,"14":0.13539914664537536,"15":-0.0176022083980972,"16":0.000005835600192521365,"17":-0.20183091739324574,"18":0.4310719670126325,"19":-0.06673382343091251,"20":-0.000007944711680436876,"21":0.3663065299031822,"22":-0.22662845360400896,"23":-0.0460477033312902,"24":-0.000010141863784180998,"25":-0.16812678998859476,"26":0.8648671124244575,"27":0.014236744474849355,"28":0.000004669919448762112,"29":-0.03295327302739997,"30":-0.4257308058134802,"31":-0.06882504643571563,"32":0.000029978807804421892,"33":-0.1821217582933911,"34":-0.16337418983739135,"35":0.3265573944576116,"36":0.000059635866468195134,"37":0.1960106057895438,"38":-0.21328558575592313,"39":-0.185358097453608,"40":0.000017870038103304864,"41":0.1313354184009886,"42":-0.13994022097554143,"43":-0.11039227667756897,"44":0.00004955249622349721,"45":0.16267570795333758,"46":-0.03806478069862061,"47":0.14114867775392387,"48":0.000018471429083067227,"49":0.044055262260251866,"50":0.030837370624681386,"51":-0.0188186359705429,"52":-0.000005242503908158364,"53":0.14388244762530525,"54":-0.05336797759417934,"55":0.08487436953843096,"56":0.000010164771424270803,"57":-0.12241518373224565,"58":0.47007872751428054,"59":-0.013919518482094686,"60":-0.00000986238652579388,"61":0.016594742041344306,"62":-0.22550513364496247,"63":-0.012802905676145906,"64":0.000001912892246014245,"65":-0.11589757963135332,"66":0.4729276035067162,"67":0.012914369403469312,"68":0.000024710348579083196,"69":-0.09729719367271601,"70":-0.16681112639701642,"71":0.08863984723532493,"72":0.0000347018976910684,"73":0.08446851631702516,"74":-0.3588849292866833,"75":0.4034950077085959,"76":0.00006184042398547382,"77":-0.06029262623453123,"78":0.08490739193591156,"79":-0.0012596822507106357,"80":0.000008437640577955894,"81":0.038259190802693875,"82":0.03624781733704081,"83":0.03736699442103404,"84":0.0000538957206733449,"85":0.22864880745961688,"86":0.1905884787907913,"87":-0.08284626269657583,"88":0.000002709400651905898,"89":-0.0019510714913803645,"90":0.2427620523851786,"91":-0.012826445783268716,"92":-0.000007579949133836894,"93":0.06251989601189542,"94":-0.21317064754378703,"95":-0.25121942489937243,"96":2.9711772156333164e-7,"97":-0.020867941038723404,"98":0.2007525915064679,"99":-0.08961497317388313,"100":0.00003204605368279567,"101":-0.05706965427233898,"102":-0.2975716100761377,"103":0.2548766693065832,"104":0.000017874471704321106,"105":0.05403292756720096,"106":0.05940614794731899,"107":0.03660691214634033,"108":0.00000802511655316994,"109":-0.030999836429920408,"110":-0.09069758046217156,"111":0.2605536892944465,"112":-0.0000029656713344992482,"113":0.22237384657969808,"114":-0.3335577916363496,"115":0.2906685608778672,"116":0.00003568332013042303,"117":-0.07550838498163806,"118":0.21465552536835578,"119":0.14664824734274765,"120":0.0000057879420324573115,"121":0.10220214889996578,"122":0.3036235096878191,"123":0.09663912254270345,"124":-0.000005311730919761763,"125":-0.0934206684208079,"126":0.2858782225944266,"127":-0.11165327701530768,"128":0.000007504234718404976,"129":0.014662912944996028,"130":0.1812979449013248,"131":-0.1259748928016798,"132":0.000004818595936215899,"133":-0.0199308206139871,"134":-0.05862795769975047,"135":-0.24783479075243603,"136":0.000022867174691214175,"137":-0.07304212636936612,"138":-0.056200066144570765,"139":0.03230067860102869,"140":-0.000010030001635294719,"141":-0.004850985624101011,"142":-0.15166737706019737,"143":0.2535252414867158,"144":0.000010233400949349809,"145":-0.04909276978493551,"146":-0.21348137027295405,"147":0.04934782781051008,"148":0.000038935408893257834,"149":-0.03318878343704118,"150":-0.06839793392325114,"151":0.22831205770861526,"152":0.0000016339515483792575,"153":-0.09211439055989586,"154":-0.3110044122981079,"155":0.139814293046194,"156":0.00007668581881700196,"157":-0.011426376130032055,"158":0.0938016395433553,"159":0.07442793435835608,"160":0.000010190507600506628,"161":0.13524200685679208,"162":0.3041085136768835,"163":0.16836789225041038,"164":0.000014316113124806922,"165":-0.08953679968348063,"166":-0.016150722977606214,"167":-0.18816351650392374,"168":0.000012776310197425654,"169":-0.02844517804253718,"170":-0.06134971078994882,"171":-0.0031509291034047134,"172":0.00003297701857510533,"173":-0.1213693914473427,"174":-0.15549124859242644,"175":-0.022331805357410358,"176":0.000011650279771625509,"177":-0.00445841031243626,"178":-0.27726309891234535,"179":0.019183764425660697,"180":0.000012230574671304985,"181":-0.01594846918580525,"182":-0.07723290927025504,"183":0.058922855968203486,"184":0.000011649731272564431,"185":0.027953529670363953,"186":-0.17447378373355046,"187":-0.0007997265511898696,"188":0.00001988035765124946,"189":0.10518767085773977,"190":-0.14105255367897487,"191":0.1538684418047339,"192":0.000013371091678761572,"193":-0.018209881172119635,"194":-0.22456918528292663,"195":0.1427252445119996,"196":0.000041894746184043606,"197":-0.03863155152697454,"198":0.02495552279791168,"199":0.11490248069594645}},{"sx":5,"sy":5,"depth":8,"w":{"0":0.000015213451971616857,"1":-0.052781654651758894,"2":-0.251279636724992,"3":-0.10567462717388429,"4":0.00006140173553798923,"5":-0.04367640182509327,"6":0.08121527427876404,"7":-0.04532890275186671,"8":0.000005689619523929858,"9":-0.06972473749083702,"10":-0.21702084958672704,"11":-0.08831095717950405,"12":0.000057668706120137246,"13":-0.04440195242032777,"14":0.006923212386188755,"15":-0.08597765266755242,"16":0.0000035668766147442,"17":-0.08403629731756924,"18":-0.18060991788533495,"19":-0.015877954969195893,"20":0.000058222165733214607,"21":-0.06864105082525103,"22":0.08885019625701003,"23":-0.028311722349997157,"24":0.000006756894625750955,"25":-0.02812509086383492,"26":-0.09580563196799673,"27":-0.029351212354620605,"28":0.00006608046514955755,"29":0.01113263162130149,"30":-0.031605362810131266,"31":0.14484763509273743,"32":0.000013804321657965629,"33":-0.06426581936822039,"34":0.1564832332392475,"35":-0.0057190616304126935,"36":0.00004845276707255917,"37":0.017932002851459662,"38":-0.05639726588266373,"39":0.33190876851409407,"40":0.00001573975893332469,"41":-0.030998516177020707,"42":-0.09082577300492428,"43":-0.05609136499255822,"44":0.000019557150069358805,"45":-0.02853217096178534,"46":0.0892102308448004,"47":-0.06429806533984819,"48":0.00001529806640620898,"49":-0.019466126164786143,"50":-0.0960437338945619,"51":-0.07208896354996469,"52":0.000055869352843510096,"53":-0.05771903548514324,"54":0.08743690086226463,"55":-0.08846322155031898,"56":0.000013373937821600856,"57":-0.08137887258188418,"58":-0.1465554182167227,"59":-0.03775630309305115,"60":0.00001370337963902685,"61":-0.016768852707370357,"62":0.09975537602205588,"63":-0.10369056855434766,"64":0.000005964119109452305,"65":-0.07961648502550879,"66":-0.18093618769928754,"67":-0.06369873980732811,"68":0.00001362868003700885,"69":0.028654364499758396,"70":-0.07567474451318229,"71":0.06153072830572012,"72":0.000019149037392434966,"73":-0.0049084656906278066,"74":-0.11772636000710522,"75":-0.0143216762690539,"76":0.00005732305683763836,"77":0.04973689936324569,"78":-0.05164208319217008,"79":0.283796210322402,"80":0.000007846629054678682,"81":0.0290471596239323,"82":0.10259767420319967,"83":-0.014804472913818013,"84":-0.000009370445528314953,"85":0.030653880010676475,"86":-0.21163258787754244,"87":0.16336075157616328,"88":0.000011782875070966775,"89":-0.01905633467116378,"90":0.22965223479662156,"91":-0.0407973358953415,"92":0.000002829354270273189,"93":0.061045482033168605,"94":-0.11544753690014604,"95":0.036122123525597905,"96":0.0000025602139451733997,"97":-0.0842425638263401,"98":0.11669073451746846,"99":0.04961253270080543,"100":0.000009704627265985693,"101":0.07171205298259438,"102":-0.016996571228435085,"103":-0.05606102657067638,"104":0.000010666420369438832,"105":-0.09648676407730188,"106":-0.087712201687462,"107":0.11627941525419262,"108":0.000027695133221904677,"109":0.054148364410379436,"110":0.08717445922065989,"111":-0.02395327101141911,"112":0.00001508383460421704,"113":-0.04247210497910163,"114":-0.050401648991333724,"115":0.12517269547947918,"116":0.00003963858298783778,"117":0.08804436604655703,"118":-0.03747986782186238,"119":-0.038445090498938156,"120":0.000007991077708906062,"121":-0.11732723722858092,"122":0.011907021260755062,"123":0.03510844729225156,"124":0.00003102732470592076,"125":-0.006832859962060328,"126":0.01727811432684797,"127":0.05511601173700314,"128":0.000007963737062637566,"129":-0.18812760773348872,"130":0.059459895761930295,"131":0.06472017908935462,"132":0.000004008596376807776,"133":0.021631061188872616,"134":-0.0699165120418295,"135":0.20080666272068673,"136":0.000006998542703683733,"137":-0.1604592620738756,"138":0.14448725410465044,"139":0.078758273082088,"140":-0.000016170739313609948,"141":0.054839489452489454,"142":-0.05062977471035737,"143":0.19401463889776904,"144":0.000013857335357248412,"145":-0.11276183520148118,"146":0.02873238440399259,"147":0.23905314131411762,"148":-0.000009295290801484872,"149":-0.004106340438504997,"150":0.05731481445533437,"151":-0.031504252913211885,"152":0.000019121212594663467,"153":-0.1726234069322046,"154":-0.09522667281764649,"155":0.08863949357938869,"156":0.000005195653980382703,"157":-0.06852299838252982,"158":0.10323126585982131,"159":-0.13283212179107023,"160":0.000018491218525166457,"161":-0.03920628439000547,"162":-0.15937050565285568,"163":0.07894814641778777,"164":0.000023179417446405642,"165":-0.09053504420574841,"166":0.1220405729874037,"167":-0.06429936805520606,"168":0.000011131682849804664,"169":0.03191688308064847,"170":-0.09388212664407387,"171":0.057603619516509746,"172":0.000036568095631635375,"173":-0.05899135813516786,"174":-0.009869108893154665,"175":0.14059983331347786,"176":0.000010583633957209216,"177":-0.07958983562502848,"178":0.13068763036327857,"179":0.018168729890832132,"180":0.000010843514849965111,"181":0.103555235878086,"182":-0.08047322157363537,"183":0.2889986442063829,"184":0.000010655173795634223,"185":-0.19101095040212368,"186":0.04055962343506008,"187":0.097010010162017,"188":-0.00002194929298510865,"189":-0.015729224877715213,"190":-0.02321713932025639,"191":0.022755299610950713,"192":0.000019709666728537994,"193":-0.1478464373098453,"194":0.1692905560636268,"195":0.03970854550326767,"196":4.2072610338452806e-7,"197":-0.023282530002997355,"198":0.04377833756563972,"199":-0.1531485675858323}},{"sx":5,"sy":5,"depth":8,"w":{"0":0.000020765557227465103,"1":-0.0054287314906826725,"2":-0.06643738639491263,"3":-0.038025076706721346,"4":0.000013057019936252914,"5":0.26894547838373517,"6":-0.13098815101924835,"7":-0.0918665917555681,"8":0.000020430351613240815,"9":-0.10835133620411204,"10":0.3853831876917033,"11":0.028952868526392398,"12":-0.000028524778927102645,"13":0.07956739314015061,"14":-0.20848753546955082,"15":-0.32573726755733956,"16":0.00001885115017309285,"17":-0.0026991832462270825,"18":0.18508917086091645,"19":0.1321956220018853,"20":0.00001811174003599234,"21":-0.08908417307570525,"22":-0.07452160034258701,"23":-0.13602621690097527,"24":0.00001646675253914082,"25":0.1550689406999578,"26":0.1694276261183104,"27":-0.05370965200182411,"28":0.000018953699807313016,"29":0.08131936981873236,"30":-0.23330681823221294,"31":-0.08985750058219101,"32":0.000012020768857656212,"33":0.12809148210734822,"34":0.05224404284101978,"35":0.1379862364572171,"36":0.0000083688303364129,"37":0.09223266667395047,"38":-0.14492666096892465,"39":0.09394141019378102,"40":0.000020943833054336338,"41":-0.014398179235630545,"42":0.11061406661547461,"43":-0.007212368466959371,"44":-0.00000952391063736614,"45":-0.19833965707952103,"46":-0.1842857602853423,"47":-0.18418547140354996,"48":0.000013636468959116551,"49":0.09776981868229308,"50":0.5788015099506301,"51":-0.015191321434962395,"52":-0.000020310038968194557,"53":-0.07210733590925092,"54":-0.20888340515828596,"55":-0.3262109836356332,"56":0.00002775783941813449,"57":0.12554861689518212,"58":0.2527901523873516,"59":-0.006085275711716104,"60":0.00004615693827837252,"61":-0.07918049439190986,"62":-0.12357630566526498,"63":-0.1779558839754821,"64":0.000030473721257774416,"65":0.04765325654364589,"66":0.07056298931496197,"67":-0.04742977993110287,"68":0.00005918608794404487,"69":0.1958922582040851,"70":0.11298850122796861,"71":-0.10710584590107915,"72":0.00003041130730434444,"73":-0.01933264968799333,"74":-0.029798426563712538,"75":0.22660543465453595,"76":0.00004586875434538946,"77":0.24205629901417208,"78":0.22682160374489163,"79":0.05656141555029268,"80":0.00003070738756266108,"81":-0.06187002385198304,"82":0.26281268838931787,"83":0.048398476910357785,"84":0.00001375845433799133,"85":-0.1537645374944017,"86":0.2932005636787351,"87":-0.28190005383578554,"88":0.0000017530230418149757,"89":-0.027262017437421845,"90":0.4088173822974807,"91":0.02169223415002565,"92":0.00002733571692266128,"93":0.03957411448875484,"94":0.16249236353359978,"95":-0.0732300624437632,"96":0.00004002846210201359,"97":0.10200595561470034,"98":0.27724723867420287,"99":0.19177428455278955,"100":7.96035885845053e-7,"101":0.18465434779901324,"102":0.31934773119032606,"103":-0.026931806898847655,"104":0.000027453961731092916,"105":0.20937921030939585,"106":0.1884980043094576,"107":0.4445340894250667,"108":0.000052551147541942604,"109":0.15991842451565588,"110":0.4606623876525894,"111":-0.02048253145537404,"112":0.00002128007430470989,"113":0.23818230319074027,"114":0.09369523159355368,"115":0.2787470752172756,"116":0.00007495047377091282,"117":-0.019612243797780055,"118":0.5942853735808256,"119":-0.11263242506594465,"120":0.000016524542863178434,"121":-0.08407095616372968,"122":0.01955660857422875,"123":0.06765908327312892,"124":6.300764240700518e-7,"125":-0.12436360631488205,"126":-0.010304817144947848,"127":-0.15435093379418824,"128":0.00001889911283919461,"129":0.26528760903730875,"130":0.09750709800258614,"131":-0.015053863269080371,"132":0.000014098878376573899,"133":-0.028318939041072848,"134":-0.009612877599141438,"135":0.28695594989737766,"136":0.00001810225855231451,"137":0.5592603429156887,"138":0.025603745299209814,"139":0.06573484253763934,"140":-0.000011602950341920889,"141":0.13739633427378223,"142":-0.1642436825168068,"143":0.4509297083676941,"144":0.000014234243000236132,"145":0.5613265393058421,"146":-0.11364020114616184,"147":0.17610383983171818,"148":-0.000007324918295010284,"149":0.22132316434895333,"150":0.12699041383613371,"151":0.514531914286354,"152":0.000019116978190182424,"153":0.33229650940948446,"154":-0.021148147797762855,"155":0.12361551578028075,"156":-0.000041730439662218675,"157":0.13273859256218237,"158":0.27762536594605913,"159":0.19201538863394188,"160":0.000024106787200378775,"161":-0.06726092188929485,"162":-0.2124480391515668,"163":0.03797656725645713,"164":0.00004266016612613992,"165":-0.07921602069554645,"166":-0.022010123984814254,"167":-0.06881405501871578,"168":0.00003123425621007364,"169":0.02761528842379681,"170":-0.27137304578699956,"171":-0.14293487245662503,"172":0.0000803562729007184,"173":-0.13733591407023027,"174":0.00759568898421862,"175":0.07436204127735559,"176":0.000015227215994197632,"177":0.11782151070172107,"178":-0.4332836207546233,"179":-0.08403621923258153,"180":0.0000844918520552855,"181":0.2723297951450167,"182":0.0071499937686937895,"183":0.30885793089025715,"184":0.00002112737875679569,"185":0.14044950057777655,"186":-0.29011941836507155,"187":0.1118263977568669,"188":0.000052109683427472186,"189":0.3984010405225484,"190":0.21341468388193888,"191":-0.05661405981791053,"192":0.0000126434937571495,"193":0.23382804571182894,"194":-0.12704088231894525,"195":0.00829143531215699,"196":0.000027663652004825258,"197":0.13815061373221232,"198":-0.07573645033685883,"199":0.1278233558729081}},{"sx":5,"sy":5,"depth":8,"w":{"0":0.000016057141493982067,"1":0.029440420244374647,"2":0.18997688775060623,"3":0.08774469825886586,"4":0.00002152602967174774,"5":0.0830977179231501,"6":0.16106396873775694,"7":-0.09559792997321864,"8":0.000015452222051107848,"9":-0.007767690881941352,"10":-0.11723800177503757,"11":0.03904371985074463,"12":-0.000012889858317129058,"13":0.16712700389088767,"14":0.2651997010876129,"15":-0.19147869303105033,"16":0.000023135262751259265,"17":0.03183918047092654,"18":0.27207715397411564,"19":0.04569222594973875,"20":-0.000030321128729150064,"21":0.10450168073864832,"22":0.07278417104517353,"23":-0.24005603786282645,"24":0.000002533061700977593,"25":0.23258957576409908,"26":0.4092403706922981,"27":0.050511399804374545,"28":-0.00003660927927740607,"29":-0.01505821332561575,"30":-0.04604514073928709,"31":0.04203684234731201,"32":0.000005406020286181985,"33":0.0583602580312736,"34":0.22134320075169459,"35":-0.07544489014817538,"36":-0.00002567797395155151,"37":-0.12379362797628284,"38":-0.05961964205124941,"39":0.2165223647278145,"40":0.00001932330776068294,"41":-0.0015969097225611813,"42":0.13095256428333962,"43":0.21580519049975905,"44":0.00005166752169111429,"45":0.04224692171845201,"46":0.4285258801158311,"47":-0.2648585790270554,"48":0.00003162230430373474,"49":0.2092289506609781,"50":0.1357658295739127,"51":0.21919433907071736,"52":0.000020610635652486275,"53":0.005264369682777886,"54":0.21689012433320431,"55":-0.2379036172542413,"56":-0.0000012733334983946239,"57":0.3593946716174978,"58":0.2635306849795151,"59":-0.11498733628932994,"60":-0.000025183976526543902,"61":0.0019171083748811078,"62":-0.17232271600884194,"63":-0.17513219592461962,"64":-0.0000031678424659769553,"65":0.24951921061502458,"66":0.10251549702689002,"67":0.009821450320366418,"68":-0.000007625262665563578,"69":0.03997970399789198,"70":-0.27546819373920606,"71":-0.07925455444378644,"72":0.000023129796897024384,"73":0.054890626332323195,"74":-0.3871644569651578,"75":-0.06752105116588851,"76":0.000018354448230116446,"77":0.20367961096030981,"78":-0.15399409918325518,"79":0.4450826326248238,"80":0.000018141484133740775,"81":0.23870934410191993,"82":0.21863331067910802,"83":0.15339381603811508,"84":0.000014665873170886435,"85":-0.1281538955181686,"86":0.16989906773657973,"87":0.049817872170138305,"88":0.000009918988776993145,"89":0.3316035497171245,"90":-0.012891579950768109,"91":0.05490643027468436,"92":0.000008443868935801094,"93":-0.02159182322734618,"94":-0.06638852074854946,"95":0.029514905606462416,"96":0.000004248894768557017,"97":0.08369163698230185,"98":-0.08837940729312997,"99":0.013496552084062186,"100":0.00005205974791032265,"101":0.07901234835767633,"102":-0.1434745638246759,"103":-0.1642897942933034,"104":0.00003106471421869677,"105":-0.0428025909958123,"106":-0.3664186158716265,"107":0.0863746244003472,"108":0.000006271874971656649,"109":0.15824586826877618,"110":-0.0749637898570689,"111":-0.11099361760120185,"112":0.000032505569396805884,"113":-0.07389326741039785,"114":-0.31048792898146615,"115":0.09050427294243238,"116":0.000052842450252339075,"117":0.28638698768543,"118":0.4536457715611969,"119":-0.10327357029113643,"120":0.000005213423522179373,"121":0.15770593807175343,"122":-0.2068938921177705,"123":0.11132833839157998,"124":0.00005367705583207523,"125":0.13109961747820612,"126":-0.0477361455667893,"127":0.36063297813148504,"128":0.000024438811845157265,"129":0.06418321089325735,"130":-0.2979933058612778,"131":0.06659214883085958,"132":0.00004134558459615069,"133":0.048019916453401305,"134":-0.058392632554923135,"135":0.14460925588372234,"136":0.00002350100344031049,"137":0.04458883074014893,"138":-0.3535288577750284,"139":-0.028297069259280366,"140":0.00004616968540007638,"141":-0.019173546334501006,"142":0.05226956081253199,"143":-0.009501598009225959,"144":0.00002665592389955059,"145":0.12508502209742256,"146":-0.20190128002330562,"147":-0.015387241385605344,"148":0.00004116481752434816,"149":0.009675043324950923,"150":0.3147862194628395,"151":-0.17603594731228245,"152":0.00001974545497004828,"153":0.3821325258176514,"154":0.05653409713823203,"155":-0.025163657016248304,"156":0.000008240977004287313,"157":-0.013413159939723767,"158":0.18932081817645932,"159":-0.12744050640331903,"160":0.000008274260965509821,"161":-0.12911904650653944,"162":-0.1466513419607648,"163":0.2815323630908515,"164":0.00009340925731876165,"165":0.050129318308549574,"166":0.19340523201388682,"167":-0.006163835710339804,"168":0.000026651753391863306,"169":-0.08792823379480283,"170":-0.0012105337411558634,"171":0.08823330548720677,"172":0.00003966741102268519,"173":-0.09736995919697508,"174":0.11494535644871197,"175":-0.11318581004371236,"176":0.000011812013825327391,"177":-0.09979827589742551,"178":-0.0008076349176703105,"179":-0.15236508219408298,"180":0.000018413371680697746,"181":-0.02312822381683518,"182":0.017702675252976474,"183":-0.2685940863581621,"184":0.000009354669965768547,"185":0.06939803043942834,"186":0.44133204720821795,"187":-0.08615204773793907,"188":-0.0000030824691805384607,"189":-0.00014312024769871774,"190":-0.06434728696825293,"191":-0.2409302164055956,"192":0.000017935332685222365,"193":0.280422339733803,"194":0.3174408642939211,"195":0.07411052186654433,"196":0.000014257952149515776,"197":0.19777792287227797,"198":-0.016294721684255373,"199":-0.08399427583693456}},{"sx":5,"sy":5,"depth":8,"w":{"0":0.000022265463390070508,"1":0.1402357760158593,"2":0.059544935706801534,"3":0.071115292891031,"4":0.000012517495431074296,"5":0.010904875009036478,"6":0.12811696119007152,"7":0.353298164812236,"8":0.0000223930290965759,"9":0.06184446591484969,"10":-0.14876992882463982,"11":0.15934379151694647,"12":0.00002500187763126763,"13":0.10085983423385625,"14":0.10138453736443756,"15":-0.014799260153993687,"16":0.000019005367500472892,"17":-0.013222054067508647,"18":-0.19917250610130968,"19":0.16091577298308182,"20":0.0000870643210158415,"21":0.17781826191766512,"22":0.4268762840859129,"23":0.0367680115772631,"24":0.000016040342270383672,"25":-0.020143335669802594,"26":-0.0805987539603464,"27":0.15385749862026343,"28":0.00009536758043602456,"29":0.18188404693994367,"30":0.1750317990034809,"31":0.10589328875059298,"32":0.00002522405000893833,"33":-0.11902357686325003,"34":-0.051817084438852794,"35":-0.04692176235521818,"36":0.00003893335306233393,"37":0.13245327109797803,"38":0.1659803978847501,"39":-0.12718480854354397,"40":0.0000202911699598726,"41":0.14074043987182291,"42":-0.0611916217466203,"43":0.09252353453512036,"44":0.000050035010110776316,"45":0.25260058849059597,"46":0.020964825818749054,"47":0.49123002470899524,"48":0.0000280068243845156,"49":0.02719148106924795,"50":0.12894330803026094,"51":0.22598144627892874,"52":0.00005138274946500774,"53":0.2709191720931089,"54":0.29371427361533314,"55":0.17925055848388305,"56":0.000019003327910167014,"57":0.019218977449631802,"58":-0.04495356836891445,"59":0.479044166803016,"60":0.00003881279359976638,"61":0.20451329607898677,"62":0.6615508592365481,"63":-0.16033475060007943,"64":0.000020268041861345082,"65":0.06328408209432555,"66":0.15532363234852756,"67":0.3423958724108416,"68":0.000029619454349477216,"69":0.062471672763653556,"70":0.7895192892744429,"71":-0.20429260954505457,"72":0.000012483277637454865,"73":0.12131411639788922,"74":0.06272691594474823,"75":0.002815320817745381,"76":0.0000011134838620001954,"77":-0.1855069783106158,"78":0.5383284580629978,"79":-0.06675372451731545,"80":0.0000137187386374509,"81":-0.12727748985836265,"82":0.07240577150902568,"83":0.15291981494790052,"84":0.000056281676741959135,"85":0.08183290734588583,"86":0.19758741543154132,"87":0.2524737906243397,"88":0.0000015989649319405517,"89":0.23760279994473263,"90":0.3105726594666044,"91":0.039987948407582685,"92":-0.00002939391821103201,"93":-0.0864556297557525,"94":0.17892366438065957,"95":0.6000951065808275,"96":0.0000010028273008755548,"97":0.5596483052693308,"98":0.015530798748205343,"99":0.2994203862609106,"100":-0.000014756850377293771,"101":-0.07436045989701584,"102":0.20641038499784042,"103":0.4866522509511196,"104":-0.0000016767947490528636,"105":0.6938836203969022,"106":0.04271275007075613,"107":0.26732809363494153,"108":-0.0000312633593542276,"109":-0.021044532057001113,"110":0.10255447775511115,"111":0.24081618248055292,"112":0.000014618564664265003,"113":0.25757520767254827,"114":-0.12604719814338788,"115":0.0317139947831398,"116":0.0000012914232092925405,"117":0.06644275440705724,"118":-0.10995906757099981,"119":0.1276700262739132,"120":0.00002093628038085761,"121":0.13301452682060994,"122":-0.10157913643471866,"123":0.1279337605509593,"124":0.0000631260988730945,"125":-0.060615216616943995,"126":0.05456875459747469,"127":0.11431443677636019,"128":0.000003300000532841812,"129":0.1487946970977857,"130":-0.06598911212357936,"131":-0.010126795984061887,"132":0.00006018643815542011,"133":0.18250432302202912,"134":-0.030146509891647466,"135":0.30485711025221435,"136":0.000005639954810567844,"137":0.12539054184545428,"138":-0.12560825670514605,"139":-0.10474935399873019,"140":0.00004510997079972368,"141":0.6638854711034371,"142":-0.174816785225225,"143":0.6316275108361992,"144":0.000023983509914964647,"145":0.021578695116393452,"146":-0.21617806442634951,"147":0.04148000827846357,"148":0.00006799362969478896,"149":0.6348413364652489,"150":-0.22407869304472694,"151":0.4475807699258236,"152":0.000014712760773841116,"153":-0.22624781070669675,"154":-0.053036685125920316,"155":-0.059567682528628825,"156":0.000008787758772028315,"157":0.31871334627926984,"158":-0.11241844574176303,"159":0.011292283917157139,"160":0.000018707714306418084,"161":0.08578552079839599,"162":-0.33859946349961323,"163":0.024257934736999588,"164":0.00009328897156756009,"165":0.05622692622563677,"166":0.11202631128485065,"167":0.0643855208653334,"168":0.000024256465757294433,"169":-0.007080189628957816,"170":-0.28769962561831375,"171":0.023512502535889195,"172":0.00004212954005745273,"173":0.1125578256504451,"174":0.22757045844563253,"175":-0.10150920133167714,"176":0.000019505401081125733,"177":0.015340153852101617,"178":-0.15109893094888552,"179":-0.173397829151602,"180":0.00005976457883162905,"181":0.18204139913060705,"182":0.23204465919716946,"183":-0.15657578452581322,"184":0.00002746930594357355,"185":-0.0784791161297269,"186":0.0968772321823084,"187":-0.13065161162804922,"188":-0.00003659517361103936,"189":0.22993540531769985,"190":0.11345837778722172,"191":-0.21664568443072169,"192":0.000019226584226728442,"193":-0.15352449044176616,"194":0.17168350953255754,"195":-0.20357870987515608,"196":0.000009074361339051154,"197":-0.04285548624212282,"198":-0.15728715349617112,"199":-0.236116723452824}},{"sx":5,"sy":5,"depth":8,"w":{"0":0.00002114099003148108,"1":-0.1296525747855727,"2":0.28325110063288483,"3":0.03540156847847416,"4":0.00005665077866738823,"5":0.3757525315011784,"6":-0.10996185627076466,"7":0.24484999297069224,"8":0.000020321240016320913,"9":-0.01578719049792483,"10":0.4787325175123015,"11":0.08650083170170805,"12":-0.000010555816064524737,"13":0.08164487778228928,"14":-0.16369698755741185,"15":0.0725056600612573,"16":0.00001946736596443784,"17":-0.05165342059569127,"18":0.20529077994474473,"19":0.01596303267439979,"20":0.000025005051200344415,"21":-0.17470081125037956,"22":-0.15627511980235548,"23":-0.007763917043245826,"24":0.000021802091543894683,"25":-0.0969302405300844,"26":-0.20245151035064413,"27":-0.016144971131018208,"28":-0.00003061888304706345,"29":-0.0644213942337371,"30":-0.18948158525859776,"31":-0.03832326120875706,"32":0.000021540451760595008,"33":-0.0018085230271739318,"34":0.03424841939552681,"35":0.00323955008683237,"36":-0.000004428604534026788,"37":-0.05538452730541003,"38":-0.17895963139750268,"39":-0.05316497131798902,"40":0.000023354581913588283,"41":-0.019751851538597813,"42":0.2894969495352,"43":0.029765986387293168,"44":0.000031266854213490566,"45":0.09073630452552231,"46":0.01965736535436104,"47":-0.19569216157949218,"48":0.00000574877060641473,"49":-0.03496344657894156,"50":0.6730972145270249,"51":0.027103841168555395,"52":0.000010472621422781425,"53":-0.07241446396941241,"54":-0.05006496944995459,"55":-0.06291184842423542,"56":0.00002996267464092663,"57":-0.06939164442854516,"58":0.15343829569112463,"59":0.05975258769145728,"60":0.00006372599595027473,"61":-0.009691288095652485,"62":-0.026129974601095375,"63":-0.00520822328589176,"64":0.000027324199851096648,"65":-0.03018186425346993,"66":-0.3367707000913557,"67":0.0723378958485582,"68":0.00005524510197276713,"69":-0.016060211089338892,"70":-0.04117212056517939,"71":-0.08790619178046456,"72":0.000022167743926773058,"73":0.01325631407474804,"74":0.021925470441428403,"75":-0.023640707094950836,"76":0.00003492232240085879,"77":-0.053935891097129804,"78":-0.10492017152372145,"79":-0.17216936147478243,"80":0.000005471851189850499,"81":0.025065900077098694,"82":0.5174590037632703,"83":-0.08353451873949995,"84":0.000005219713172200659,"85":-0.021152002911513486,"86":-0.1306340645690126,"87":-0.06939723690315568,"88":0.000025834328894833857,"89":0.01476144853151233,"90":0.42271528745988024,"91":-0.05217312993436576,"92":0.00005223212254534047,"93":-0.078473525596129,"94":-0.23684876749009892,"95":0.04881663862381121,"96":0.000019570891268270836,"97":0.10234580375019185,"98":-0.18240575999355882,"99":0.13433880705597764,"100":0.000041167373839194173,"101":-0.040411220364332784,"102":-0.17801376899083568,"103":0.05781974759091725,"104":0.00003241846255253562,"105":-0.005557431907778201,"106":-0.21270282625509027,"107":0.06487546872520832,"108":0.00004929072169649879,"109":0.042564951377173144,"110":0.03043208500736725,"111":0.06302185524691029,"112":0.000020043772286802028,"113":-0.08575859157697639,"114":-0.009051708073739962,"115":-0.03879826916069593,"116":0.00004420280349170829,"117":0.005168034671266806,"118":-0.05017428612268499,"119":-0.0716611523725041,"120":0.000009684238665640074,"121":-0.14697817060068025,"122":0.12805058633022534,"123":-0.10497008270759008,"124":0.000014209168504398894,"125":-0.12684393836594057,"126":-0.16965720682618973,"127":-0.07782552964742216,"128":0.00002696676585506618,"129":-0.045148552093220835,"130":0.08404790198198167,"131":0.018493096175251737,"132":0.00003286495610596871,"133":-0.1655598743427786,"134":-0.18161109484005858,"135":0.11017459765626389,"136":0.000021622398405841115,"137":-0.0368675121995864,"138":-0.3058925132950047,"139":0.1497700157633091,"140":0.000023398023602974977,"141":0.0061938200555088615,"142":0.0535526945590999,"143":-0.05653808198426312,"144":0.000016895879558173568,"145":-0.011330297889177346,"146":-0.15979546045340617,"147":0.11608189364354465,"148":0.000048966900064337465,"149":0.015299680937777779,"150":0.062049980952678656,"151":-0.0213663817506514,"152":0.000012363351832247794,"153":0.010503852403272234,"154":-0.08989629745238435,"155":-0.008678223785795131,"156":0.00002840995057097594,"157":-0.0175011878222623,"158":-0.06483593679739162,"159":0.05735934699180729,"160":0.000023919843453656117,"161":-0.1002561087440819,"162":-0.014894716122416532,"163":0.014019422216663939,"164":0.000011300522606017086,"165":-0.025098848295198727,"166":-0.08020834119584566,"167":0.01952900126333589,"168":0.00001952589611548452,"169":-0.06573258287327567,"170":0.10611539794811643,"171":0.03635858011678078,"172":0.00001933427134702199,"173":-0.013247609144252014,"174":-0.03406384799580633,"175":0.10409289036698628,"176":0.000005845061784096338,"177":-0.12181240401321362,"178":-0.1298486642251285,"179":0.18374933317085806,"180":0.00002814884770151189,"181":0.0419240422074395,"182":0.10004283423352653,"183":-0.10307768582783937,"184":0.000016044807115387556,"185":-0.015871063162227413,"186":-0.20198329914749638,"187":0.09338604141232217,"188":0.0000337819165104869,"189":-0.051937485882384116,"190":0.14665055958691453,"191":-0.03796911313545237,"192":0.000021996324484332088,"193":-0.02302809027404391,"194":-0.1937252132605961,"195":-0.019766728208042005,"196":0.000034822356652628234,"197":-0.048724481846628274,"198":0.07816446235945737,"199":0.004674555202635259}}],"biases":{"sx":1,"sy":1,"depth":16,"w":{"0":-0.23366362417133474,"1":-0.6362192532292685,"2":-0.010536107424233764,"3":-0.1995946057453003,"4":-0.0907012823818997,"5":-0.3819320344537037,"6":-0.37650223829126217,"7":-0.17064169989283515,"8":-0.24360385251761268,"9":-0.08151453720740054,"10":-0.28240284205173843,"11":-0.26350122055846426,"12":-0.4833222599435909,"13":-0.6593126995883472,"14":-0.24829343985359695,"15":-0.09697255875569807}}},{"out_depth":16,"out_sx":12,"out_sy":12,"layer_type":"relu"},{"sx":3,"sy":3,"stride":3,"in_depth":16,"out_depth":16,"out_sx":4,"out_sy":4,"layer_type":"pool","pad":0},{"out_depth":10,"out_sx":1,"out_sy":1,"layer_type":"fc","num_inputs":256,"l1_decay_mul":0,"l2_decay_mul":1,"filters":[{"sx":1,"sy":1,"depth":256,"w":{"0":-0.00025309293430952754,"1":-0.02461932410818657,"2":-6.63016437691326e-8,"3":-0.026849402058470268,"4":-0.035656865455614514,"5":-0.001263415779234343,"6":-0.10995085922397316,"7":-0.02478015107284578,"8":-0.00826393136177389,"9":-0.07371070842771725,"10":-0.00015151619596775676,"11":-0.03054391475443634,"12":-0.025742047667991274,"13":-0.057602747141641014,"14":-0.02003964437090413,"15":-0.004478481535381902,"16":-0.00894798771408703,"17":-0.131292420920697,"18":-3.940228051617393e-7,"19":-0.15998171051269913,"20":-0.04038079045642731,"21":-0.015754697024628637,"22":-0.2687499819886326,"23":-0.2510681919907658,"24":-0.19999373035667814,"25":-0.26637049061009366,"26":-0.019350134337814347,"27":-0.0580902846345238,"28":-0.25522932733234704,"29":-0.17995353093100383,"30":-0.15016928458268297,"31":-0.05538062612573739,"32":-0.06691753562291652,"33":-0.22026176076347123,"34":-1.9542661916010597e-7,"35":-0.2235204469765082,"36":-0.05550010699323573,"37":-0.007663155169379612,"38":-0.22150539264440483,"39":-0.2602580601286349,"40":-0.23626851674491067,"41":-0.21583284242478776,"42":-0.10602297069980206,"43":-0.07008729386614133,"44":-0.32366017300074096,"45":-0.1860169601221744,"46":-0.3510406013313172,"47":-0.12024176717944178,"48":-0.059125491619367816,"49":-0.15228561170286278,"50":-5.180055685586185e-7,"51":-0.11297893440415743,"52":-0.032656599490914914,"53":0.003496634677743842,"54":-0.24686473398917097,"55":-0.2464427384622072,"56":-0.20485347679688723,"57":-0.20915951188951984,"58":-0.09696432207082863,"59":-0.04958046371391331,"60":-0.15165116785520652,"61":-0.14657784732510243,"62":-0.262297816014383,"63":-0.06260810881710835,"64":-0.004795084734234911,"65":-0.14407663326725828,"66":1.9196057368892222e-8,"67":-0.07100309002719495,"68":-0.05158439160924519,"69":-0.020814453066390428,"70":-0.12038776514093757,"71":-0.05446458448628907,"72":-0.09055381155879795,"73":-0.09255620362308245,"74":-0.027296398500465988,"75":0.0030339081414590885,"76":-0.09971102019096519,"77":-0.028431709929640846,"78":-0.11839894052689062,"79":-0.006714494792209892,"80":-0.061975437814049544,"81":-0.34773409950421147,"82":-3.4818041899331693e-7,"83":-0.2741461576131387,"84":-0.14118175907961877,"85":-0.25813062925630537,"86":-0.298648210589968,"87":-0.2978741981510174,"88":-0.18107114286373344,"89":-0.3308336469972576,"90":-0.20426921995823394,"91":-0.11374838627485083,"92":-0.4589845941264441,"93":-0.2582618063939427,"94":-0.35568330208336163,"95":-0.15454763702531676,"96":-0.24659558804878376,"97":-0.13434643066492064,"98":-5.305801547374009e-9,"99":-0.33088086016253176,"100":-0.1255241238271143,"101":-0.05296331653532821,"102":-0.3669131494846573,"103":-0.37760184222051024,"104":-0.2532804923310814,"105":-0.23267751637376569,"106":-0.2126751462110078,"107":-0.13629014533059297,"108":-0.30212385354879445,"109":-0.3314720278689987,"110":-0.23441416469807558,"111":-0.2815422460334778,"112":-0.35378316225020157,"113":-0.05232327357957918,"114":-4.673136921110126e-7,"115":-0.32246528383010703,"116":-0.03471873415500024,"117":0.058851852191220654,"118":-0.2769952751200395,"119":-0.27793516056211254,"120":-0.23430832518755978,"121":-0.19623265561009412,"122":-0.34904762352938223,"123":-0.09380897280069508,"124":-0.30444047487511466,"125":-0.2010883061706341,"126":-0.13860759781212054,"127":-0.35103766674216613,"128":-0.004832068352692826,"129":-0.18328139911023364,"130":-8.612614489870565e-7,"131":-0.21723804003953498,"132":-0.1086528598826219,"133":-0.03201765523016512,"134":-0.2958742809398282,"135":-0.09817904469476266,"136":-0.08263913676927494,"137":-0.13087891304323568,"138":-0.09179543356481902,"139":-0.06168983449538701,"140":-0.21695656623134077,"141":-0.15778485527401342,"142":-0.1359813462942654,"143":-0.018226712341761677,"144":-0.09620336669602937,"145":-0.40834489533951446,"146":-2.9561652675537323e-7,"147":-0.4043498133133368,"148":-0.12685284403241268,"149":-0.2919338665009447,"150":-0.4124644086093937,"151":-0.33618158473866,"152":-0.33460663241909067,"153":-0.38598985194849855,"154":-0.22202655099916105,"155":-0.16523287660557512,"156":-0.22292370457316493,"157":-0.2567249107858299,"158":-0.6155095504323747,"159":-0.04135808184882493,"160":-0.302109158498921,"161":-0.1796619536023324,"162":4.046854260073772e-8,"163":-0.37924752057670785,"164":-0.09624497373335175,"165":-0.28409819147560195,"166":-0.33782370330931255,"167":-0.3593804958813317,"168":-0.14885388083267076,"169":-0.4979467971613124,"170":-0.44119189010017223,"171":-0.15546514989848603,"172":-0.49115427742401196,"173":-0.3157964947609918,"174":-0.7813484222047449,"175":-0.2412778730821582,"176":-0.5084842392615395,"177":0.01635964862367627,"178":-4.1963718367112486e-9,"179":-0.4165875359014389,"180":-0.012854066236629443,"181":0.06739174619589983,"182":-0.14187433430669452,"183":-0.31550731192053866,"184":-0.052046039407735,"185":-0.3954863606715599,"186":-0.06900336670162326,"187":-0.15819598340358515,"188":-0.2158514058403622,"189":-0.32289210711177463,"190":-0.37143960732045506,"191":-0.3457923975797074,"192":-0.015237946697823804,"193":-0.14192105455477003,"194":-7.982032018157803e-7,"195":-0.18133235366165823,"196":-0.1887170374753266,"197":-0.08703051676480354,"198":-0.15962339892414026,"199":-0.10324179129336805,"200":-0.11431191038835298,"201":-0.13442128395022382,"202":-0.1486515448913071,"203":-0.11946025062440428,"204":-0.1619339016061393,"205":-0.1987595361917144,"206":-0.2483269265672389,"207":0.0015108728252947719,"208":-0.10510919971654593,"209":-0.2481322325265492,"210":-2.2988699618843093e-9,"211":-0.2681738640282596,"212":-0.2433431263110545,"213":-0.21213673664767857,"214":-0.27165689424686185,"215":-0.12601072209174685,"216":-0.14399693246933956,"217":-0.15221556933150787,"218":-0.2682277739472089,"219":-0.16580785069189238,"220":-0.23328042142294697,"221":-0.2788605554718049,"222":-0.22971249194314014,"223":-0.09305608444742329,"224":-0.4513783370959459,"225":-0.3065626486565016,"226":-1.8383377779099395e-7,"227":-0.30597396647905406,"228":-0.18890581138170975,"229":-0.3129082954425151,"230":-0.11451553015891723,"231":-0.12791894549020952,"232":-0.08617978159467408,"233":-0.1825113010432391,"234":-0.4623892353314122,"235":-0.07894840536052947,"236":-0.4824758799805605,"237":-0.22374446787510507,"238":-0.1834188110121211,"239":-0.45247955577260096,"240":-0.3728788822470584,"241":-0.00958751853728154,"242":-1.0488141498740471e-7,"243":-0.1763726566348741,"244":-0.05904976643626552,"245":-0.03501659705611771,